svm_type nu_svc
kernel_type rbf
gamma 3
nr_class 6
total_sv 324
rho -0.389537 0.503971 1.24705 2.44354 -0.664528 0.611662 1.40921 0.468114 -1.10722 -0.293779 -0.643453 -1.35577 -1.80374 -0.911155 -0.0855926
label 0 5 7 3 1 4
probA -4.50955 -3.4962 -2.11909 -1.31914 -3.3945 -3.31732 -2.66913 -2.347 -1.36939 -2.45027 -3.04036 -1.51643 -1.28126 -2.11048 -2.19093
probB 0.778743 0.496519 0.150373 -0.476716 0.50957 0.144641 -0.144944 0.0761537 -0.0884735 -0.00275444 -0.0835174 -0.409071 0.107131 -0.00300355 -0.182332
nr_sv 132 38 39 45 44 26
SV
0 3.46839138997297 4.134999150471623 6.555808803218435 0 2:0.389928 3:0.010079 4:0.534231 5:0.046199 6:0.652427 7:0.097369 8:0.761093 9:0.167966 10:0.863869 11:0.285858 12:0.965554 13:0.428923 14:1 15:0.576139 16:0.990139 17:0.753227 18:0.913272 19:0.900306 20:0.80411 21:0.95973 22:0.673505 23:0.995668 24:0.541743 25:1 26:0.394726 27:0.736307 28:0.035902 29:0.494276 31:0.245542 32:0.035671 33:0.220322 34:0.30492 35:0.117937 36:0.2896 37:0.024855 38:0.326098 39:0.114425 40:0.32709 41:0.212113 42:0.342179 43:0.324212 44:0.354555 45:0.532175 46:0.351113 47:0.635928 48:0.301446 49:0.745884 50:0.286324 51:0.861084 52:0.315972 53:0.747389 54:0.320638 55:0.646828 56:0.336223 57:0.692845 58:0.348764 59:0.20208 60:0.348532 61:0.295617 62:0.407928 63:0.2465 64:0.378115 65:0.195786 66:0.365342 67:0.152552 68:0.373482 69:0.107721 70:0.398663 71:0.15278 72:0.421429 73:0.199115 74:0.430562 75:0.246728 76:0.426061 77:0.207324 78:0.393303 79:0.693392 80:0.393303 81:0.592831 82:0.408888 83:0.642997 84:0.377122 85:0.691248 86:0.365805 87:0.737584 88:0.374938 89:0.78734 90:0.397935 91:0.737812 92:0.422885 93:0.694577 94:0.431025 95:0.643544 96:0.42166 97:0.508962 98:0.548559 99:0.428786 100:0.548029 101:0.353309 102:0.547732 103:0.343732 104:0.649978 105:0.417066 106:0.622779 107:0.504401 108:0.647629 109:0.582752 110:0.617253 111:0.541342 112:0.656299 113:0.425412 114:0.684822 115:0.324303 116:0.655868 117:0.290555 118:0.613117 119:0.2574 120:0.76556 121:0.320381 122:0.748122 123:0.387103 124:0.74114 125:0.429379 126:0.743225 127:0.476673 128:0.742133 129:0.556209 130:0.749479 131:0.644183 132:0.767513 133:0.521093 134:0.771715 135:0.435582 136:0.77777 137:0.355726 138:0.773833 139:0.35039 140:0.780418 141:0.434305 142:0.791403 143:0.520135 144:0.78194 145:0.583664 146:0.80904 147:0.515666 148:0.829655 149:0.434852 150:0.835942 151:0.360013 152:0.828828 153:0.300862 154:0.805367 
0 0 0 1.914691884772572 0 2:0.391697 3:0.001936 4:0.535908 5:0.024365 6:0.657434 7:0.070232 8:0.770187 9:0.152542 10:0.878442 11:0.29511 12:0.97002 13:0.440035 14:1 15:0.585045 16:0.988818 17:0.763255 18:0.921468 19:0.896187 20:0.816876 21:0.960024 22:0.687221 23:0.992636 24:0.555541 25:1 26:0.408502 27:0.753535 28:0.03917 29:0.519778 31:0.277689 32:0.035764 33:0.264854 34:0.312811 35:0.167859 36:0.296231 37:0.074483 38:0.327914 39:0.164072 40:0.330291 41:0.256607 42:0.346583 43:0.358441 44:0.360046 45:0.57444 46:0.356897 47:0.673414 48:0.315286 49:0.774196 50:0.297805 51:0.869677 52:0.32801 53:0.77487 54:0.332155 55:0.678926 56:0.346518 57:0.713853 58:0.355644 59:0.237628 60:0.355644 61:0.32524 62:0.416214 63:0.279204 64:0.385785 65:0.236113 66:0.369268 67:0.189993 68:0.380001 69:0.147198 70:0.40124 71:0.18953 72:0.424569 73:0.233378 74:0.434273 75:0.278741 76:0.430352 77:0.237165 78:0.400212 79:0.71339 80:0.400212 81:0.617447 82:0.414575 83:0.665839 84:0.383407 85:0.711959 86:0.372674 87:0.755428 88:0.385785 89:0.79814 90:0.405707 91:0.754965 92:0.430353 93:0.713685 94:0.437968 95:0.664997 96:0.431381 97:0.533875 98:0.560104 99:0.462128 100:0.558883 101:0.38592 102:0.557373 103:0.383858 104:0.656727 105:0.454174 106:0.63041 107:0.532192 108:0.656052 109:0.602508 110:0.629736 111:0.5619 112:0.671701 113:0.456278 114:0.692298 115:0.36004 116:0.668905 117:0.324819 118:0.622024 119:0.284716 120:0.780663 121:0.350194 122:0.757463 123:0.413777 124:0.751293 125:0.453922 126:0.753896 127:0.494445 128:0.753093 129:0.565435 130:0.761126 131:0.638992 132:0.786479 133:0.531182 134:0.78635 135:0.454974 136:0.78484 137:0.378766 138:0.78333 139:0.378009 140:0.790142 141:0.453459 142:0.798464 143:0.530424 144:0.793162 145:0.585381 146:0.82417 147:0.520662 148:0.840558 149:0.448157 150:0.846149 151:0.381628 152:0.838405 153:0.329995 154:0.817904 
0 0 0 36.48400952055459 0 2:0.395972 3:0.011017 4:0.547517 5:0.042041 6:0.669046 7:0.096239 8:0.777865 9:0.186147 10:0.884826 11:0.322148 12:0.969789 13:0.462201 14:1 15:0.605546 16:0.985726 17:0.770672 18:0.917481 19:0.898442 20:0.813258 21:0.961758 22:0.678725 23:0.993542 24:0.549668 25:1 26:0.402327 27:0.751551 28:0.034318 29:0.518425 31:0.280233 32:0.034122 33:0.272762 34:0.315311 35:0.171584 36:0.300548 37:0.08041 38:0.330856 39:0.169052 40:0.334767 41:0.261365 42:0.34914 43:0.366975 44:0.364099 45:0.567177 46:0.362632 47:0.655185 48:0.315018 49:0.754464 50:0.295366 51:0.854628 52:0.323817 53:0.756363 54:0.329781 55:0.665949 56:0.349824 57:0.714449 58:0.355397 59:0.242877 60:0.358623 61:0.331898 62:0.417481 63:0.285172 64:0.387955 65:0.241864 66:0.372311 67:0.196784 68:0.380622 69:0.154869 70:0.406238 71:0.19767 72:0.428725 73:0.241484 74:0.437524 75:0.286311 76:0.432636 77:0.248702 78:0.400078 79:0.715588 80:0.400078 81:0.621248 82:0.413082 83:0.667849 84:0.384239 85:0.713182 86:0.372507 87:0.756996 88:0.381306 89:0.799797 90:0.403794 91:0.757883 92:0.42941 93:0.712802 94:0.43772 95:0.668988 96:0.428921 97:0.543877 98:0.557294 99:0.468279 100:0.557391 101:0.392681 102:0.557489 103:0.394454 104:0.653696 105:0.462961 106:0.629253 107:0.541218 108:0.653305 109:0.609725 110:0.628862 111:0.57123 112:0.668361 113:0.467266 114:0.69124 115:0.37128 116:0.666406 117:0.334178 118:0.627004 119:0.309231 120:0.783829 121:0.368621 122:0.762417 123:0.431683 124:0.751467 125:0.471572 126:0.753226 127:0.511713 128:0.751564 129:0.577688 130:0.761341 131:0.647081 132:0.785002 133:0.54489 134:0.783926 135:0.473471 136:0.787642 137:0.402558 138:0.784513 139:0.397873 140:0.78774 141:0.472711 142:0.797908 143:0.544384 144:0.79077 145:0.595543 146:0.820493 147:0.540838 148:0.838678 149:0.469419 150:0.842393 151:0.403191 152:0.836038 153:0.351273 154:0.816582 
0 3.46839138997297 0 0 0 2:0.377409 3:0.021851 4:0.520443 5:0.058269 6:0.643167 7:0.113783 8:0.762623 9:0.207442 10:0.878944 11:0.339528 12:0.97172 13:0.491549 14:1 15:0.629891 16:0.983959 17:0.764217 18:0.91346 19:0.875198 20:0.808777 21:0.943599 22:0.683386 23:0.983519 24:0.550991 25:1 26:0.391216 27:0.752498 28:0.032282 29:0.514801 31:0.266692 32:0.032282 33:0.234943 34:0.26339 35:0.130264 36:0.255853 37:0.039079 38:0.306243 39:0.134466 40:0.296705 41:0.234429 42:0.300807 43:0.353394 44:0.308444 45:0.615417 46:0.303475 47:0.735036 48:0.26349 49:0.839854 50:0.260822 51:0.934448 52:0.309111 53:0.829816 54:0.298172 55:0.734522 56:0.300907 57:0.72934 58:0.331488 59:0.238771 60:0.331455 61:0.333178 62:0.39335 63:0.285974 64:0.362402 65:0.233729 66:0.351831 67:0.190774 68:0.358334 69:0.147539 70:0.385246 71:0.190167 72:0.402555 73:0.232888 74:0.413059 75:0.285367 76:0.406623 77:0.233355 78:0.379044 79:0.719162 80:0.379044 81:0.633206 82:0.395451 83:0.681249 84:0.36517 85:0.72906 86:0.351898 87:0.771781 88:0.362402 89:0.819077 90:0.386547 91:0.771174 92:0.406623 93:0.728173 94:0.416528 95:0.680642 96:0.409391 97:0.574283 98:0.524311 99:0.493323 100:0.523744 101:0.412363 102:0.523178 103:0.415725 104:0.625258 105:0.497152 106:0.59181 107:0.572883 108:0.626359 109:0.654076 110:0.609918 111:0.60127 112:0.640165 113:0.496218 114:0.659841 115:0.391727 116:0.638698 117:0.339714 118:0.611119 119:0.332851 120:0.764157 121:0.395368 122:0.72037 123:0.462275 124:0.703828 125:0.500327 126:0.707497 127:0.538426 128:0.707764 129:0.604865 130:0.725238 131:0.666169 132:0.769893 133:0.571062 134:0.759021 135:0.499673 136:0.755119 137:0.428191 138:0.75802 139:0.427958 140:0.775028 141:0.499206 142:0.789135 143:0.570782 144:0.77943 145:0.627416 146:0.817248 147:0.569941 148:0.840659 149:0.498412 150:0.846962 151:0.427117 152:0.836257 153:0.370343 154:0.808644 
0 0.9696582629789032 0 0 0 1:0.00299 2:0.358974 4:0.489913 5:0.036957 6:0.617219 7:0.083862 8:0.741098 9:0.200763 10:0.864494 11:0.362507 12:0.977508 13:0.50786 14:1 15:0.657543 16:0.978823 17:0.820885 18:0.870272 19:0.938818 20:0.735181 21:0.97696 22:0.61407 23:1 24:0.486349 25:0.982939 26:0.352192 27:0.698005 28:0.031904 29:0.457502 31:0.217978 32:0.03187 33:0.266533 34:0.263158 35:0.136436 36:0.257345 37:0.042369 38:0.318419 39:0.142261 40:0.311014 41:0.257306 42:0.313575 43:0.3773 44:0.312744 45:0.557394 46:0.318212 47:0.666615 48:0.267103 49:0.791505 50:0.259525 51:0.902324 52:0.312468 53:0.792279 54:0.309872 55:0.677388 56:0.317381 57:0.707386 58:0.317174 59:0.232308 60:0.313748 61:0.328076 62:0.363438 63:0.277718 64:0.340289 65:0.232565 66:0.33053 67:0.187722 68:0.340911 69:0.143034 70:0.361362 71:0.188289 72:0.377833 73:0.23339 74:0.384235 75:0.278336 76:0.380567 77:0.227926 78:0.354061 79:0.712953 80:0.354061 81:0.618112 82:0.364788 83:0.662749 84:0.340981 85:0.707592 86:0.3306 87:0.752745 88:0.340358 89:0.803051 90:0.360151 91:0.758311 92:0.377245 93:0.713468 94:0.387626 95:0.668368 96:0.381224 97:0.555178 98:0.499498 99:0.480181 100:0.500017 101:0.405185 102:0.500536 103:0.401732 104:0.601267 105:0.481367 106:0.577217 107:0.566723 108:0.600125 109:0.620896 110:0.54604 111:0.606825 112:0.606561 113:0.487243 114:0.634243 115:0.366837 116:0.608222 117:0.345858 118:0.544586 119:0.308747 120:0.732828 121:0.378434 122:0.712205 123:0.448327 124:0.705007 125:0.49348 126:0.714765 127:0.543323 128:0.70435 129:0.613474 130:0.713935 131:0.688727 132:0.730198 133:0.588784 134:0.734247 135:0.49884 136:0.738226 137:0.408793 138:0.735493 139:0.408896 140:0.742206 141:0.499098 142:0.755009 143:0.588939 144:0.744316 145:0.639297 146:0.767466 147:0.579609 148:0.78802 149:0.499716 150:0.795287 151:0.419618 152:0.789128 153:0.35926 154:0.766047 
0.9406167021812436 0 0 45.9794822702929 2.378498400502073 2:0.361034 3:0.004004 4:0.491531 5:0.042762 6:0.6182 7:0.091581 8:0.748077 9:0.209805 10:0.866949 11:0.367659 12:0.978578 13:0.512782 14:1 15:0.656571 16:0.977923 17:0.817608 18:0.868571 19:0.937988 20:0.733002 21:0.974025 22:0.608645 23:1 24:0.481079 25:0.986037 26:0.350719 27:0.692248 28:0.03008 29:0.447228 31:0.209138 32:0.033427 33:0.276181 34:0.270171 35:0.151489 36:0.265204 37:0.053645 38:0.323468 39:0.158111 40:0.318673 41:0.267762 42:0.320501 43:0.387166 44:0.315499 45:0.556776 46:0.323192 47:0.664887 48:0.274828 49:0.784189 50:0.26648 51:0.89538 52:0.3185 53:0.785729 54:0.316672 55:0.676283 56:0.321536 57:0.706058 58:0.317776 59:0.237782 60:0.317569 61:0.32885 62:0.363172 63:0.283316 64:0.340371 65:0.238193 66:0.330953 67:0.193686 68:0.341612 69:0.149487 70:0.36231 71:0.194815 72:0.378419 73:0.239836 74:0.384491 75:0.284446 76:0.377178 77:0.228953 78:0.354514 79:0.712166 80:0.354514 81:0.622844 82:0.365794 83:0.66694 84:0.34175 85:0.711448 86:0.331091 87:0.756571 88:0.340508 89:0.802002 90:0.359964 91:0.7577 92:0.377316 93:0.71309 94:0.384629 95:0.66807 96:0.378557 97:0.562115 98:0.497189 99:0.487423 100:0.498223 101:0.412731 102:0.499258 103:0.405955 104:0.603125 105:0.489887 106:0.57853 107:0.575257 108:0.60078 109:0.623409 110:0.546552 111:0.610318 112:0.606989 113:0.491632 114:0.635413 115:0.376283 116:0.610231 117:0.354518 118:0.550278 119:0.305288 120:0.731726 121:0.379569 122:0.717307 123:0.454158 124:0.712926 125:0.499281 126:0.722343 127:0.548768 128:0.711615 129:0.623665 130:0.717272 131:0.698768 132:0.729622 133:0.594302 134:0.734417 135:0.499897 136:0.74242 137:0.410062 138:0.736969 139:0.410472 140:0.750354 141:0.500513 142:0.762496 143:0.594815 144:0.751147 145:0.650205 146:0.770465 147:0.586088 148:0.791438 149:0.501643 150:0.799303 151:0.421766 152:0.793715 153:0.356212 154:0.767843 
0 3.438082470665007 0 20.99928307080237 0 1:0.002963 2:0.3706 4:0.492586 5:0.017591 6:0.599603 7:0.043032 8:0.715881 9:0.16013 10:0.882239 11:0.351665 12:0.976414 13:0.51261 14:1 15:0.654335 16:0.983661 17:0.817798 18:0.903559 19:0.934304 20:0.761793 21:0.973818 22:0.631162 23:0.996889 24:0.512506 25:1 26:0.384422 27:0.774321 28:0.033518 29:0.557086 31:0.330223 32:0.030412 33:0.321001 34:0.243831 35:0.20394 36:0.242208 37:0.109691 38:0.298864 39:0.211051 40:0.281965 41:0.316002 42:0.28342 43:0.424842 44:0.29103 45:0.614709 46:0.287561 47:0.716735 48:0.243215 49:0.825797 50:0.241676 51:0.913269 52:0.297801 53:0.816761 54:0.28121 55:0.719735 56:0.285966 57:0.743214 58:0.316798 59:0.290968 60:0.31663 61:0.382402 62:0.37586 63:0.334481 64:0.353841 65:0.290375 66:0.341027 67:0.24575 68:0.349561 69:0.204718 70:0.376448 71:0.244639 72:0.395305 73:0.288894 74:0.40202 75:0.333444 76:0.396536 77:0.293745 78:0.36853 79:0.733881 80:0.36853 81:0.648891 82:0.376504 83:0.697922 84:0.352778 85:0.742621 86:0.341195 87:0.782691 88:0.353953 89:0.826501 90:0.378966 91:0.781654 92:0.396648 93:0.74114 94:0.402188 95:0.692849 96:0.395417 97:0.594045 98:0.473365 99:0.525423 100:0.472413 101:0.456727 102:0.474512 103:0.46243 104:0.572212 105:0.532089 106:0.530468 107:0.595637 108:0.574059 109:0.660593 110:0.559706 111:0.61919 112:0.601841 113:0.530163 114:0.609759 115:0.429471 116:0.599211 117:0.386031 118:0.55895 119:0.345332 120:0.738375 121:0.418805 122:0.705836 123:0.487872 124:0.68849 125:0.528164 126:0.692099 127:0.57264 128:0.689665 129:0.632819 130:0.705752 131:0.692553 132:0.740138 133:0.600081 134:0.723603 135:0.527423 136:0.722595 137:0.446617 138:0.724526 139:0.446321 140:0.736724 141:0.522868 142:0.743887 143:0.599711 144:0.738851 145:0.643373 146:0.769963 147:0.586639 148:0.778328 149:0.521979 150:0.780482 151:0.453431 152:0.776481 153:0.397141 154:0.766549 
0 0 2.875548495164196 0 0 2:0.412766 3:0.010929 4:0.548936 5:0.043716 6:0.680851 7:0.098361 8:0.817021 9:0.240437 10:0.92766 11:0.42623 12:0.991489 13:0.568306 14:1 15:0.710383 16:0.974468 17:0.852459 18:0.876596 19:0.945355 20:0.761702 21:0.983607 22:0.629787 23:1 24:0.514894 25:0.994536 26:0.395745 27:0.726776 28:0.034043 29:0.486339 31:0.256831 32:0.034043 33:0.306011 34:0.289362 35:0.185792 36:0.289362 37:0.092896 38:0.348936 39:0.191257 40:0.32766 41:0.300546 42:0.331915 43:0.420765 44:0.331915 45:0.661202 46:0.33617 47:0.765027 48:0.289362 49:0.874317 50:0.280851 51:0.961749 52:0.33617 53:0.868852 54:0.323404 55:0.770492 56:0.331915 57:0.775956 58:0.348936 59:0.295082 60:0.353191 61:0.393443 62:0.412766 63:0.344262 64:0.382979 65:0.300546 66:0.374468 67:0.256831 68:0.382979 69:0.213115 70:0.408511 71:0.256831 72:0.429787 73:0.300546 74:0.434043 75:0.349727 76:0.425532 77:0.306011 78:0.4 79:0.775956 80:0.4 81:0.688525 82:0.408511 83:0.73224 84:0.387234 85:0.775956 86:0.370213 87:0.819672 88:0.378723 89:0.863388 90:0.404255 91:0.819672 92:0.425532 93:0.781421 94:0.434043 95:0.73224 96:0.429787 97:0.622951 98:0.540426 99:0.551913 100:0.540426 101:0.486339 102:0.544681 103:0.491803 104:0.642553 105:0.568306 106:0.612766 107:0.63388 108:0.642553 109:0.68306 110:0.604255 111:0.655738 112:0.659574 113:0.562842 114:0.676596 115:0.459016 116:0.655319 117:0.420765 118:0.608511 119:0.371585 120:0.782979 121:0.453552 122:0.765957 123:0.52459 124:0.757447 125:0.568306 126:0.761702 127:0.612022 128:0.753191 129:0.672131 130:0.765957 131:0.73224 132:0.778723 133:0.644809 134:0.782979 135:0.568306 136:0.782979 137:0.480874 138:0.782979 139:0.480874 140:0.787234 141:0.562842 142:0.795745 143:0.644809 144:0.787234 145:0.688525 146:0.812766 147:0.63388 148:0.834043 149:0.568306 150:0.842553 151:0.491803 152:0.834043 153:0.42623 154:0.817021 
0 0 16.35550123092551 32.28874200214802 0 2:0.396845 3:0.003372 4:0.51601 5:0.01696 6:0.624418 7:0.050629 8:0.73658 9:0.174384 10:0.885492 11:0.369351 12:0.980759 13:0.535179 14:1 15:0.686462 16:0.979423 17:0.848817 18:0.886719 19:0.951334 20:0.753872 21:0.988425 22:0.620555 23:1 24:0.512328 25:0.996427 26:0.407603 27:0.790186 28:0.037869 29:0.544087 31:0.291948 32:0.034295 33:0.278259 34:0.294141 35:0.167539 36:0.293347 37:0.086361 38:0.339699 39:0.177051 40:0.333129 41:0.272672 42:0.333815 43:0.388425 44:0.334645 45:0.64006 46:0.33645 47:0.741319 48:0.293852 49:0.837041 50:0.287318 51:0.921993 52:0.331252 53:0.836437 54:0.330638 55:0.745747 56:0.337208 57:0.775591 58:0.362695 59:0.27232 60:0.359085 61:0.357222 62:0.406628 63:0.31228 64:0.381033 65:0.267086 66:0.373488 67:0.226724 68:0.38042 69:0.18616 70:0.401791 71:0.22622 72:0.416519 73:0.271414 74:0.424064 75:0.311777 76:0.417133 77:0.27685 78:0.39522 79:0.780171 80:0.39522 81:0.684399 82:0.405364 83:0.729995 84:0.384029 85:0.770408 86:0.373488 87:0.810518 88:0.384607 89:0.850528 90:0.402946 91:0.810066 92:0.417097 93:0.769703 94:0.424028 95:0.729492 96:0.420129 97:0.602617 98:0.495036 99:0.522043 100:0.498069 101:0.446502 102:0.501137 103:0.445093 104:0.602217 105:0.536185 106:0.566767 107:0.621288 108:0.59987 109:0.697131 110:0.575142 111:0.656266 112:0.618173 113:0.535229 114:0.635356 115:0.40458 116:0.619978 117:0.359889 118:0.576333 119:0.342426 120:0.745894 121:0.423452 122:0.710372 123:0.494112 124:0.696437 125:0.539356 126:0.700372 127:0.579718 128:0.693441 129:0.649975 130:0.708386 131:0.71993 132:0.744991 133:0.624409 134:0.737085 135:0.538802 136:0.740082 137:0.453246 138:0.739468 139:0.448113 140:0.746652 141:0.538601 142:0.754522 143:0.619275 144:0.744269 145:0.669149 146:0.77712 147:0.608556 148:0.791127 149:0.538047 150:0.794231 151:0.462557 152:0.79369 153:0.397333 154:0.778781 
3.272836044294539 0 0 0 0 1:0.011812 2:0.406658 4:0.518548 5:0.008859 6:0.619392 7:0.022691 8:0.731471 9:0.123193 10:0.881512 11:0.326996 12:0.980057 13:0.501114 14:1 15:0.655131 16:0.989935 17:0.840906 18:0.909184 19:0.955655 20:0.771922 21:0.988188 22:0.645254 23:1 24:0.533364 25:0.986168 26:0.421285 27:0.796612 28:0.035437 29:0.54577 31:0.293892 32:0.039207 33:0.269699 34:0.304041 35:0.156867 36:0.303212 37:0.07403 38:0.358592 39:0.161426 40:0.344304 41:0.264001 42:0.345058 43:0.381961 44:0.345925 45:0.633321 46:0.34404 47:0.736518 48:0.300008 49:0.839144 50:0.297029 51:0.925607 52:0.349921 53:0.833445 54:0.338046 55:0.741025 56:0.344832 57:0.761281 58:0.363643 59:0.258561 60:0.367413 61:0.345024 62:0.420305 63:0.299228 64:0.39384 65:0.253277 66:0.378572 67:0.212091 68:0.389467 69:0.170699 70:0.415291 71:0.211521 72:0.430521 73:0.252448 74:0.438287 75:0.29871 76:0.431162 77:0.252914 78:0.404697 79:0.760711 80:0.404697 81:0.668186 82:0.418948 83:0.714759 84:0.389429 85:0.761073 86:0.378572 87:0.801948 88:0.39007 89:0.842667 90:0.412765 91:0.801378 92:0.431124 93:0.760296 94:0.434555 95:0.71419 96:0.430483 97:0.58996 98:0.511687 99:0.513029 100:0.511121 101:0.441175 102:0.514326 103:0.434699 104:0.611325 105:0.522406 106:0.574644 107:0.603948 108:0.612569 109:0.676164 110:0.583239 111:0.644718 112:0.631531 113:0.521421 114:0.645555 115:0.388282 116:0.629646 117:0.353054 118:0.580864 119:0.299332 120:0.7559 121:0.392115 122:0.722989 123:0.47433 124:0.712395 125:0.520437 126:0.716467 127:0.566648 128:0.713074 129:0.643423 130:0.724836 131:0.725069 132:0.755297 133:0.612288 134:0.750735 135:0.514842 136:0.750019 137:0.417396 138:0.749303 139:0.417241 140:0.760499 141:0.514635 142:0.764948 143:0.612133 144:0.761932 145:0.663006 146:0.792166 147:0.596125 148:0.806605 149:0.514013 150:0.809734 151:0.432057 152:0.801666 153:0.360462 154:0.78621 
0 0 0.3134816006620121 10.7848382722292 0 1:0.001592 2:0.410018 4:0.529416 5:0.008358 6:0.641428 7:0.031441 8:0.757283 9:0.157505 10:0.907511 11:0.373166 12:0.987525 13:0.540471 14:1 15:0.693398 16:0.982512 17:0.866922 18:0.898014 19:0.96229 20:0.764407 21:0.993632 22:0.630309 23:1 24:0.522142 25:0.991543 26:0.417593 27:0.789762 28:0.035428 29:0.548878 31:0.307049 32:0.035465 33:0.298542 34:0.304074 35:0.195115 36:0.303283 37:0.115716 38:0.347454 39:0.204467 40:0.34067 41:0.29312 42:0.341349 43:0.406447 44:0.338484 45:0.667479 46:0.340482 47:0.756629 48:0.303848 49:0.845331 50:0.300795 51:0.91871 52:0.338673 53:0.839908 54:0.33807 55:0.761057 56:0.341198 57:0.780409 58:0.367467 59:0.292722 60:0.371198 61:0.375802 62:0.420345 63:0.331824 64:0.393887 65:0.292573 66:0.382392 67:0.248147 68:0.389515 69:0.208447 70:0.411601 71:0.2476 72:0.430558 73:0.291876 74:0.434629 75:0.331327 76:0.431199 77:0.297199 78:0.404817 79:0.784836 80:0.404817 81:0.696035 82:0.415332 83:0.74066 84:0.393284 85:0.78021 86:0.382392 87:0.819462 88:0.393887 89:0.858614 90:0.412844 91:0.818964 92:0.431199 93:0.779513 94:0.434629 95:0.740162 96:0.430596 97:0.615939 98:0.51174 99:0.542013 100:0.514906 101:0.468086 102:0.518072 103:0.466793 104:0.615083 105:0.555942 106:0.578449 107:0.634247 108:0.616364 109:0.703447 110:0.598236 111:0.663499 112:0.638978 113:0.550072 114:0.649305 115:0.427093 116:0.637169 117:0.378389 118:0.595749 119:0.35635 120:0.770964 121:0.4357 122:0.730524 123:0.509776 124:0.716165 125:0.554052 126:0.720235 127:0.593503 128:0.716806 129:0.65738 130:0.728489 131:0.715935 132:0.769984 133:0.627431 134:0.758112 135:0.548629 136:0.757509 137:0.464902 138:0.756869 139:0.464853 140:0.7606 141:0.54853 142:0.764972 143:0.627382 144:0.761844 145:0.666335 146:0.795726 147:0.612009 148:0.806505 149:0.547933 150:0.809746 151:0.474106 152:0.80545 153:0.410228 154:0.793766 
3.272836044294539 0 0 0 0 1:0.00306 2:0.40587 4:0.536342 5:0.011121 6:0.648587 7:0.036569 8:0.753477 9:0.139527 10:0.901259 11:0.332961 12:0.983128 13:0.496673 14:1 15:0.6599 16:0.98064 17:0.865475 18:0.89211 19:0.969161 20:0.735507 21:0.991793 22:0.630252 23:1 24:0.525106 25:0.993541 26:0.401954 27:0.719392 28:0.038062 29:0.483269 31:0.24331 32:0.034439 33:0.260891 34:0.269836 35:0.150308 36:0.270678 37:0.064494 38:0.325684 39:0.16041 40:0.306836 41:0.256617 42:0.309728 43:0.367297 44:0.316132 45:0.598125 46:0.317999 47:0.698461 48:0.270129 49:0.809043 50:0.269287 51:0.901122 52:0.32294 53:0.804721 54:0.305556 55:0.703803 56:0.309947 57:0.728279 58:0.342373 59:0.247438 60:0.34241 61:0.339663 62:0.406932 63:0.295955 64:0.374652 65:0.24773 66:0.364149 67:0.204604 68:0.375348 69:0.161721 70:0.404663 71:0.205187 72:0.418826 73:0.248555 74:0.425743 75:0.296586 76:0.421754 77:0.257734 78:0.393061 79:0.733767 80:0.393061 81:0.642611 82:0.408249 83:0.685494 84:0.378934 85:0.733379 86:0.364076 87:0.776796 88:0.374616 89:0.820456 90:0.403272 91:0.777427 92:0.421717 93:0.734253 94:0.429293 95:0.686077 96:0.422413 97:0.562187 98:0.506697 99:0.485261 100:0.507283 101:0.408334 102:0.507869 103:0.404788 104:0.602108 105:0.485989 106:0.561631 107:0.568258 108:0.600864 109:0.654607 110:0.585712 111:0.611821 112:0.622274 113:0.487009 114:0.637718 115:0.366568 116:0.620517 117:0.327668 118:0.588201 119:0.276917 120:0.748024 121:0.362877 122:0.703887 123:0.444417 124:0.688772 125:0.487737 126:0.692066 127:0.535768 128:0.688076 129:0.622505 130:0.70191 131:0.70963 132:0.74473 133:0.589238 134:0.731152 135:0.49308 136:0.731884 137:0.396921 138:0.732616 139:0.397164 140:0.750732 141:0.493419 142:0.757246 143:0.589529 144:0.752891 145:0.647613 146:0.781438 147:0.575688 148:0.796479 149:0.494002 150:0.800725 151:0.407411 152:0.79776 153:0.335098 154:0.783816 
3.272836044294539 0 0 0 5.275473434093558 1:0.002951 2:0.409859 4:0.533341 5:0.010612 6:0.645513 7:0.035359 8:0.757246 9:0.151525 10:0.90243 11:0.34926 12:0.983385 13:0.5153 14:1 15:0.679437 16:0.980384 17:0.882168 18:0.886986 19:0.987056 20:0.727675 21:1 22:0.614771 23:0.999191 24:0.509552 25:0.988388 26:0.393756 27:0.700614 28:0.036159 29:0.462761 31:0.233617 32:0.039782 33:0.24561 34:0.268043 35:0.14196 36:0.271263 37:0.064912 38:0.331723 39:0.148575 40:0.307349 41:0.242992 42:0.308044 43:0.351544 44:0.3083 45:0.601628 46:0.307788 47:0.702994 48:0.261089 49:0.802313 50:0.265261 51:0.889973 52:0.316974 53:0.794794 54:0.301786 55:0.705278 56:0.304567 57:0.721506 58:0.343983 59:0.249608 60:0.34413 61:0.34274 62:0.410189 63:0.293913 64:0.379044 65:0.25075 66:0.365869 67:0.208918 68:0.378056 69:0.167849 70:0.404736 71:0.206491 72:0.421681 73:0.249274 74:0.427609 75:0.296198 76:0.422522 77:0.256984 78:0.394708 79:0.724171 80:0.394708 81:0.635226 82:0.408359 83:0.680817 84:0.37791 85:0.722458 86:0.362099 87:0.765621 88:0.375274 89:0.809356 90:0.399319 91:0.772617 92:0.418606 93:0.730595 94:0.42717 95:0.683101 96:0.421388 97:0.569885 98:0.512004 99:0.494313 100:0.510723 101:0.41422 102:0.513212 103:0.414648 104:0.611184 105:0.497549 106:0.572317 107:0.579736 108:0.609684 109:0.668491 110:0.59241 111:0.62309 112:0.626482 113:0.501356 114:0.644781 115:0.377909 116:0.630471 117:0.329082 118:0.599327 119:0.294484 120:0.749195 121:0.377005 122:0.703082 123:0.461238 124:0.689577 125:0.503831 126:0.691883 127:0.550754 128:0.686796 129:0.631609 130:0.6988 131:0.718888 132:0.743266 133:0.600343 134:0.732433 135:0.505925 136:0.731738 137:0.411698 138:0.734665 139:0.41303 140:0.760028 141:0.507638 142:0.764346 143:0.601675 144:0.757795 145:0.664446 146:0.784878 147:0.594727 148:0.80519 149:0.510113 150:0.811448 151:0.424927 152:0.806836 153:0.353305 154:0.790916 
0 0 0 83.92908540367843 0 2:0.399611 3:0.00297 4:0.524646 5:0.028802 6:0.639144 7:0.072724 8:0.760927 9:0.18478 10:0.886811 11:0.35633 12:0.981011 13:0.501552 14:1 15:0.633545 16:0.98674 17:0.793619 18:0.909406 19:0.917961 20:0.781789 21:0.964988 22:0.657143 23:0.993789 24:0.535927 25:1 26:0.403819 27:0.745556 28:0.033946 29:0.514153 31:0.281896 32:0.033911 33:0.310337 34:0.302016 35:0.192206 36:0.297525 37:0.096035 38:0.353925 39:0.196166 40:0.343989 41:0.305207 42:0.348409 43:0.418793 44:0.352864 45:0.600648 46:0.350707 47:0.701229 48:0.305057 49:0.814995 50:0.295226 51:0.90977 52:0.34954 53:0.809864 54:0.34162 55:0.709779 56:0.347984 57:0.73246 58:0.351733 59:0.2733 60:0.355304 61:0.363575 62:0.406011 63:0.318392 64:0.384229 65:0.273075 66:0.373161 67:0.227487 68:0.383522 69:0.18631 70:0.404632 71:0.231538 72:0.422843 73:0.27231 74:0.433876 75:0.317852 76:0.427086 77:0.268215 78:0.398126 79:0.72733 80:0.398126 81:0.64538 82:0.408204 83:0.691148 84:0.383557 85:0.73219 86:0.373161 87:0.777553 88:0.380658 89:0.818145 90:0.405976 91:0.777013 92:0.423515 93:0.73147 94:0.430304 95:0.690653 96:0.422843 97:0.584717 98:0.532744 99:0.516538 100:0.532214 101:0.44836 102:0.531683 103:0.442599 104:0.628076 105:0.520184 106:0.603678 107:0.588047 108:0.629208 109:0.647586 110:0.593953 111:0.619684 112:0.643741 113:0.519419 114:0.664392 115:0.415148 116:0.64215 117:0.383961 118:0.591902 119:0.336393 120:0.759406 121:0.409387 122:0.738543 123:0.477656 124:0.731931 125:0.518519 126:0.73582 127:0.559471 128:0.732567 129:0.618424 130:0.743741 131:0.681787 132:0.765665 133:0.590927 134:0.761386 135:0.513613 136:0.764356 137:0.436389 138:0.760184 139:0.431799 140:0.76372 141:0.513478 142:0.775071 143:0.590837 144:0.768529 145:0.63593 146:0.797454 147:0.581207 148:0.811315 149:0.512938 150:0.817928 151:0.444849 152:0.810255 153:0.385986 154:0.791938 
0 3.46839138997297 0 0 2.093699224690564 2:0.377551 3:0.005398 4:0.504079 5:0.029023 6:0.613559 7:0.067279 8:0.732727 9:0.177832 10:0.880365 11:0.343071 12:0.976859 13:0.509919 14:1 15:0.655982 16:0.980255 17:0.799204 18:0.893917 19:0.916197 20:0.748144 21:0.958288 22:0.623947 23:0.986601 24:0.510039 25:1 26:0.379782 27:0.757682 28:0.031632 29:0.519388 31:0.283793 32:0.031632 33:0.302353 34:0.244531 35:0.183845 36:0.243699 37:0.086691 38:0.299071 39:0.190142 40:0.280225 41:0.299323 42:0.284587 43:0.417973 44:0.288749 45:0.631173 46:0.287584 47:0.738222 48:0.242001 49:0.842384 50:0.239803 51:0.934473 52:0.28785 53:0.839212 54:0.276529 55:0.739927 56:0.281957 57:0.760428 58:0.318183 59:0.272478 60:0.321813 61:0.369727 62:0.379749 63:0.321244 64:0.35411 65:0.27333 66:0.341791 67:0.22641 68:0.352779 69:0.184934 70:0.380315 71:0.228256 72:0.396064 73:0.276029 74:0.405054 75:0.323091 76:0.397396 77:0.274466 78:0.368428 79:0.748355 80:0.368428 81:0.663415 82:0.376885 83:0.714502 84:0.352479 85:0.761422 86:0.341491 87:0.80446 88:0.350581 89:0.848208 90:0.376319 91:0.801572 92:0.393967 93:0.759244 94:0.401525 95:0.711614 96:0.395865 97:0.605842 98:0.471415 99:0.529946 100:0.469683 101:0.454192 102:0.471282 103:0.458454 104:0.571172 105:0.53738 106:0.532847 107:0.605369 108:0.571405 109:0.680697 110:0.559818 111:0.630178 112:0.597543 113:0.531177 114:0.609629 115:0.426305 116:0.595179 117:0.377397 118:0.559551 119:0.332702 120:0.733793 121:0.411628 122:0.695468 123:0.482079 124:0.680651 125:0.529568 126:0.682982 127:0.572179 128:0.682083 129:0.634582 130:0.700763 131:0.697836 132:0.73942 133:0.602292 134:0.72144 135:0.526395 136:0.719708 137:0.441172 138:0.721506 139:0.43729 140:0.741584 141:0.522939 142:0.749775 143:0.598409 144:0.741518 145:0.65191 146:0.773716 147:0.590928 148:0.788333 149:0.519909 150:0.789831 151:0.443871 152:0.78477 153:0.381469 154:0.766091 
0 2.882341212631685 0 0 0 1:0.00452 2:0.379344 4:0.49835 5:0.024294 6:0.616773 7:0.068503 8:0.75131 9:0.175 10:0.881285 11:0.35226 12:0.980101 13:0.511723 14:1 15:0.664548 16:0.977092 17:0.82387 18:0.881382 19:0.937853 20:0.737041 21:0.971186 22:0.617453 23:1 24:0.504562 25:0.999435 26:0.379053 27:0.720339 28:0.034556 29:0.468926 31:0.225141 32:0.031353 33:0.282768 34:0.254805 35:0.162429 36:0.250631 37:0.064124 38:0.312075 39:0.169068 40:0.293438 41:0.279802 42:0.297806 43:0.404944 44:0.301883 45:0.635735 46:0.303824 47:0.749153 48:0.258591 49:0.864266 50:0.252961 51:0.95791 52:0.307222 53:0.856356 54:0.292759 55:0.75565 56:0.298097 57:0.75678 58:0.3245 59:0.25678 60:0.321394 61:0.360311 62:0.382062 63:0.306215 64:0.353427 65:0.257768 66:0.344496 67:0.210169 68:0.355368 69:0.167938 70:0.379344 71:0.212006 72:0.398272 73:0.260452 74:0.407202 75:0.308051 76:0.396331 77:0.254096 78:0.370996 79:0.74435 80:0.370996 81:0.663136 82:0.382547 83:0.710169 84:0.358474 85:0.757627 86:0.344302 87:0.806073 88:0.353232 89:0.850565 90:0.382062 91:0.808051 92:0.399437 93:0.760311 94:0.407008 95:0.712006 96:0.401378 97:0.605226 98:0.48942 99:0.528249 100:0.487672 101:0.456073 102:0.485828 103:0.455509 104:0.584935 105:0.530791 106:0.547078 107:0.599717 108:0.585323 109:0.666102 110:0.564162 111:0.624859 112:0.611241 113:0.524294 114:0.61988 115:0.42274 116:0.605416 117:0.382486 118:0.563289 119:0.341949 120:0.739177 121:0.412571 122:0.704718 123:0.483898 124:0.68676 125:0.522599 126:0.692584 127:0.57048 128:0.688313 129:0.629096 130:0.71025 131:0.683616 132:0.748787 133:0.596469 134:0.734032 135:0.524152 136:0.728887 137:0.442514 138:0.730538 139:0.443079 140:0.743739 141:0.52048 142:0.755387 143:0.597034 144:0.747234 145:0.641808 146:0.782664 147:0.589548 148:0.796933 149:0.517655 150:0.801689 151:0.45 152:0.793147 153:0.391384 154:0.771209 
0 3.46839138997297 0 0 0 2:0.383301 3:0.000412 4:0.505534 5:0.024035 6:0.623981 7:0.067161 8:0.761845 9:0.184727 10:0.891553 11:0.370828 12:0.983495 13:0.530422 14:1 15:0.68356 16:0.973689 17:0.843153 18:0.877864 19:0.944513 20:0.730388 21:0.981321 22:0.604078 23:1 24:0.491359 25:0.999863 26:0.375728 27:0.723802 28:0.031262 29:0.479467 31:0.242412 32:0.031359 33:0.30765 34:0.251359 35:0.181294 36:0.247379 37:0.085565 38:0.305534 39:0.192281 40:0.286796 41:0.300096 42:0.294466 43:0.421783 44:0.298544 45:0.641533 46:0.300582 47:0.742343 48:0.252233 49:0.854278 50:0.246602 51:0.949732 52:0.294175 53:0.851119 54:0.28301 55:0.753331 56:0.29165 57:0.763769 58:0.317864 59:0.277709 60:0.318058 61:0.378519 62:0.382039 63:0.330586 64:0.353301 65:0.278671 66:0.341165 67:0.232523 68:0.35534 69:0.186787 70:0.379417 71:0.234446 72:0.401553 73:0.281417 74:0.407184 75:0.332509 76:0.399515 77:0.279907 78:0.370874 79:0.756627 80:0.370874 81:0.672984 82:0.382524 83:0.718583 84:0.355146 85:0.7694 86:0.340874 87:0.811839 88:0.349903 89:0.859772 90:0.378641 91:0.813762 92:0.396116 93:0.767477 94:0.40699 95:0.720505 96:0.401359 97:0.616673 98:0.489417 99:0.541821 100:0.48767 101:0.471639 102:0.485825 103:0.471089 104:0.584952 105:0.548963 106:0.54699 107:0.611317 108:0.58534 109:0.685483 110:0.570583 111:0.640434 112:0.611165 113:0.542645 114:0.619806 115:0.444032 116:0.608641 117:0.395687 118:0.57 119:0.35627 120:0.745922 121:0.429474 122:0.708058 123:0.498833 124:0.690097 125:0.541134 126:0.695825 127:0.583024 128:0.69165 129:0.644554 130:0.710194 131:0.697706 132:0.752039 133:0.612965 134:0.737282 135:0.537976 136:0.732233 137:0.458591 138:0.733884 139:0.459277 140:0.750388 141:0.534405 142:0.758738 143:0.608982 144:0.753883 145:0.657053 146:0.785922 147:0.606235 148:0.800194 149:0.536327 150:0.804951 151:0.4612 152:0.796602 153:0.40434 154:0.777961 
0 0 16.73031284276405 78.94157011022693 0 2:0.390637 3:0.0064 4:0.519663 5:0.028206 6:0.644944 7:0.075492 8:0.770693 9:0.189026 10:0.897659 11:0.354823 12:0.981273 13:0.497037 14:1 15:0.640436 16:0.978464 17:0.826736 18:0.885206 19:0.948447 20:0.734363 21:0.98246 22:0.618165 23:0.996208 24:0.497566 25:1 26:0.368727 27:0.668286 28:0.032303 29:0.444892 31:0.229675 32:0.03633 33:0.273169 34:0.290918 35:0.166153 36:0.288951 37:0.083076 38:0.339794 39:0.169945 40:0.333333 41:0.266769 42:0.335112 43:0.373904 44:0.333052 45:0.582958 46:0.332865 47:0.686182 48:0.290449 49:0.793435 50:0.284363 51:0.888955 52:0.330431 53:0.792131 54:0.328652 55:0.69507 56:0.334925 57:0.699929 58:0.343071 59:0.25634 60:0.342977 61:0.341669 62:0.388858 63:0.301493 64:0.367977 65:0.260962 66:0.359176 67:0.219957 68:0.366479 69:0.183693 70:0.385955 71:0.223987 72:0.402809 73:0.25954 74:0.407491 75:0.300545 76:0.400187 77:0.26037 78:0.379307 79:0.698862 80:0.379307 81:0.622185 82:0.385955 83:0.65845 84:0.366479 85:0.699573 86:0.35515 87:0.740104 88:0.363951 89:0.78028 90:0.384831 91:0.744133 92:0.400281 93:0.703129 94:0.407584 95:0.662479 96:0.402809 97:0.557359 98:0.509644 99:0.486016 100:0.508333 101:0.414672 102:0.507022 103:0.411709 104:0.607678 105:0.483882 106:0.580805 107:0.559611 108:0.606367 109:0.621948 110:0.567228 111:0.589713 112:0.623034 113:0.487082 114:0.645318 115:0.385755 116:0.623315 117:0.351624 118:0.570318 119:0.325907 120:0.751123 121:0.387888 122:0.724064 123:0.449395 124:0.713109 125:0.489926 126:0.72191 127:0.530931 128:0.714607 129:0.591846 130:0.723783 131:0.657265 132:0.753183 133:0.565655 134:0.747472 135:0.489215 136:0.746067 137:0.412776 138:0.744663 139:0.412657 140:0.748689 141:0.48886 142:0.758146 143:0.565537 144:0.751498 145:0.610571 146:0.780524 147:0.554041 148:0.795599 149:0.487675 150:0.798408 151:0.426641 152:0.793258 153:0.371059 154:0.776124 
0 0 18.99467872424916 83.92908540367843 0 2:0.376152 3:0.016629 4:0.505035 5:0.042299 6:0.6206 7:0.093597 8:0.736756 9:0.212366 10:0.878137 11:0.371195 12:0.97648 13:0.511404 14:1 15:0.644563 16:0.982778 17:0.788754 18:0.89818 19:0.903915 20:0.789241 21:0.964544 22:0.651993 23:0.986481 24:0.520617 25:1 26:0.385665 27:0.765074 28:0.03195 29:0.5525 31:0.32902 32:0.032049 33:0.314921 34:0.298868 35:0.212781 36:0.28637 37:0.121714 38:0.32147 39:0.211164 40:0.330294 41:0.304885 42:0.339216 43:0.407274 44:0.344957 45:0.582649 46:0.342234 47:0.678361 48:0.297097 49:0.7771 50:0.285846 51:0.869827 52:0.321798 53:0.775483 54:0.329769 55:0.68114 56:0.33774 57:0.719333 58:0.345383 59:0.279008 60:0.345383 61:0.362818 62:0.391274 63:0.320851 64:0.370018 65:0.27851 66:0.358898 67:0.239695 68:0.368148 69:0.196235 70:0.387436 71:0.238451 72:0.401935 73:0.27652 74:0.412957 75:0.319482 76:0.407184 77:0.281911 78:0.382647 79:0.722236 80:0.382647 81:0.632164 82:0.390717 83:0.675749 84:0.36805 85:0.71444 86:0.362178 87:0.756905 88:0.36992 89:0.794725 90:0.387699 91:0.755661 92:0.403707 93:0.716969 94:0.409579 95:0.67438 96:0.405216 97:0.563614 98:0.510874 99:0.495148 100:0.512678 101:0.426557 102:0.517861 103:0.422701 104:0.622601 105:0.500581 106:0.597343 107:0.58099 108:0.619485 109:0.642034 110:0.587076 111:0.606245 112:0.630212 113:0.507008 114:0.654978 115:0.396699 116:0.632147 117:0.355603 118:0.58724 119:0.336692 120:0.752501 121:0.40603 122:0.727046 123:0.466078 124:0.721666 125:0.508792 126:0.722651 127:0.547483 128:0.716779 129:0.615576 130:0.725111 131:0.687567 132:0.743677 133:0.589201 134:0.744793 135:0.512068 136:0.749779 137:0.430912 138:0.747909 139:0.430289 140:0.764802 141:0.511197 142:0.77343 143:0.588579 144:0.761686 145:0.639089 146:0.783139 147:0.578419 148:0.805413 149:0.513975 150:0.814073 151:0.441486 152:0.809021 153:0.382309 154:0.79075 
0 0 0 8.602259419617766 0 2:0.384246 3:0.016742 4:0.512209 5:0.042557 6:0.626948 7:0.093856 8:0.748976 9:0.209113 10:0.88252 11:0.364577 12:0.973323 13:0.505237 14:1 15:0.643216 16:0.982968 17:0.796536 18:0.899132 19:0.912495 20:0.780878 21:0.969155 22:0.641141 23:0.990887 24:0.517403 25:1 26:0.386665 27:0.751134 28:0.035225 29:0.529237 31:0.304742 32:0.035225 33:0.299134 34:0.3037 35:0.200742 36:0.294765 37:0.109196 38:0.332989 39:0.199258 40:0.335021 41:0.293485 42:0.340505 43:0.396289 44:0.346182 45:0.580825 46:0.346989 47:0.676907 48:0.302152 49:0.776041 50:0.290958 51:0.869155 52:0.326635 53:0.774557 54:0.331215 55:0.679835 56:0.33915 57:0.718185 58:0.346731 59:0.27167 60:0.350085 61:0.355711 62:0.398987 63:0.313691 64:0.374536 65:0.266887 66:0.363408 67:0.227918 68:0.372601 69:0.188454 70:0.395213 71:0.230845 72:0.4096 73:0.269072 74:0.420535 75:0.312206 76:0.414793 77:0.274598 78:0.387084 79:0.72099 80:0.387084 81:0.630557 82:0.395116 83:0.674309 84:0.372601 85:0.717567 86:0.363504 87:0.755918 88:0.371085 89:0.798062 90:0.392181 91:0.758722 92:0.411438 93:0.715587 94:0.41718 95:0.672948 96:0.409503 97:0.561526 98:0.521144 99:0.492784 100:0.522951 101:0.424041 102:0.524757 103:0.424619 104:0.625496 105:0.498515 106:0.600303 107:0.570557 108:0.625431 109:0.635876 110:0.600045 111:0.595794 112:0.639431 113:0.500577 114:0.660785 115:0.40268 116:0.638431 117:0.361155 118:0.600561 119:0.342474 120:0.757943 121:0.40767 122:0.735912 123:0.463794 124:0.727106 125:0.50668 126:0.728073 127:0.545402 128:0.725589 129:0.609484 130:0.733751 131:0.673072 132:0.75533 133:0.578845 134:0.749847 135:0.505691 136:0.754911 137:0.432784 138:0.753266 139:0.432165 140:0.77004 141:0.504825 142:0.778394 143:0.578103 144:0.769975 145:0.628825 146:0.791265 147:0.572206 148:0.81349 149:0.507629 150:0.818748 151:0.439134 152:0.813845 153:0.384 154:0.795813 
0 0.8286965181054743 0 0 0 2:0.359818 3:0.011006 4:0.490638 5:0.040133 6:0.611248 7:0.087763 8:0.748499 9:0.21316 10:0.895217 11:0.397097 12:0.98442 13:0.552581 14:1 15:0.698404 16:0.978732 17:0.834086 18:0.887056 19:0.923387 20:0.74539 21:0.967077 22:0.607433 23:0.992742 24:0.486399 25:1 26:0.355437 27:0.739642 28:0.031866 29:0.519994 31:0.305777 32:0.02851 33:0.345573 34:0.256447 35:0.231376 36:0.253974 37:0.131597 38:0.301738 39:0.236566 40:0.297569 41:0.341632 42:0.300113 43:0.455782 44:0.29923 45:0.629386 46:0.3046 47:0.733731 48:0.256801 49:0.834134 50:0.252667 51:0.926127 52:0.298947 53:0.834759 54:0.296298 55:0.738921 56:0.300396 57:0.752667 58:0.303646 59:0.314284 60:0.303681 61:0.401855 62:0.360065 63:0.355811 64:0.333569 65:0.310007 66:0.323854 67:0.269057 68:0.33424 69:0.228299 70:0.358051 71:0.269634 72:0.374514 73:0.31539 74:0.380873 75:0.360953 76:0.373808 77:0.310391 78:0.350703 79:0.744208 80:0.350703 81:0.662165 82:0.361407 83:0.70744 84:0.334205 85:0.752956 86:0.323783 87:0.794194 88:0.333534 89:0.835624 90:0.356709 91:0.794771 92:0.373808 93:0.753773 94:0.380838 95:0.708017 96:0.374479 97:0.622657 98:0.472479 99:0.554215 100:0.476365 101:0.481159 102:0.476931 103:0.487263 104:0.584293 105:0.568922 106:0.546739 107:0.628857 108:0.586554 109:0.697203 110:0.575956 111:0.647409 112:0.60655 113:0.560896 114:0.624002 115:0.460156 116:0.604642 117:0.409497 118:0.574825 119:0.370806 120:0.742952 121:0.448044 122:0.715502 123:0.516389 124:0.704904 125:0.562049 126:0.70455 127:0.603143 128:0.704232 129:0.662645 130:0.713842 131:0.71787 132:0.743623 133:0.630924 134:0.73087 135:0.557868 136:0.731435 137:0.480198 138:0.728679 139:0.475872 140:0.745496 141:0.558204 142:0.754928 143:0.631164 144:0.747651 145:0.672594 146:0.770826 147:0.617947 148:0.781318 149:0.554071 150:0.785169 151:0.485533 152:0.782343 153:0.425983 154:0.769377 
0 0 18.99467872424916 0 0 1:0.003923 2:0.402765 4:0.530141 5:0.010891 6:0.640592 7:0.034702 8:0.746112 9:0.156599 10:0.896869 11:0.36569 12:0.982413 13:0.528851 14:1 15:0.681729 16:0.980177 17:0.865454 18:0.893159 19:0.969898 20:0.744333 21:0.990936 22:0.636729 23:1 24:0.528057 25:0.987012 26:0.405256 27:0.741189 28:0.039697 29:0.500575 31:0.264087 32:0.036698 33:0.287222 34:0.300295 35:0.178516 36:0.296686 37:0.093215 38:0.349903 39:0.18386 40:0.339738 41:0.280593 42:0.342279 43:0.390246 44:0.33989 45:0.612122 46:0.344465 47:0.711967 48:0.301667 49:0.813637 50:0.298567 51:0.898803 52:0.348734 53:0.807008 54:0.340551 55:0.717311 56:0.344719 57:0.739363 58:0.358849 59:0.266252 60:0.356206 61:0.351417 62:0.406374 63:0.306839 64:0.381112 65:0.264358 66:0.368202 67:0.222079 68:0.379638 69:0.181898 70:0.403426 71:0.224379 72:0.416336 73:0.263817 74:0.422893 75:0.309139 76:0.41781 77:0.264087 78:0.395547 79:0.741663 80:0.395547 81:0.654536 82:0.409068 83:0.699181 84:0.382637 85:0.74146 86:0.371201 87:0.780424 88:0.380756 89:0.821011 90:0.405662 91:0.78225 92:0.420453 93:0.740919 94:0.425892 95:0.69749 96:0.418979 97:0.590543 98:0.50676 99:0.513292 100:0.508997 101:0.440032 102:0.511589 103:0.437327 104:0.605622 105:0.523777 106:0.570753 107:0.603328 108:0.605215 109:0.669823 110:0.568568 111:0.641345 112:0.620769 113:0.521342 114:0.63744 115:0.394101 116:0.623056 117:0.357776 118:0.57116 119:0.325847 120:0.747738 121:0.405263 122:0.70616 123:0.479943 124:0.694571 125:0.523845 126:0.698485 127:0.569167 128:0.693402 129:0.644051 130:0.70616 131:0.714672 132:0.745908 133:0.615369 134:0.734014 135:0.526145 136:0.735183 137:0.436921 138:0.736353 139:0.4355 140:0.745349 141:0.523304 142:0.753177 143:0.613475 144:0.74601 145:0.665088 146:0.777981 147:0.602381 148:0.790637 149:0.52513 150:0.792874 151:0.448353 152:0.792111 153:0.381925 154:0.777066 
3.272836044294539 0 18.4802819551191 39.9933231065503 0 1:0.010034 2:0.407425 4:0.532861 5:0.016679 6:0.642586 7:0.038873 8:0.743633 9:0.15217 10:0.894331 11:0.356635 12:0.98054 13:0.512924 14:1 15:0.659379 16:0.984494 17:0.849425 18:0.902598 19:0.953884 20:0.762374 21:0.98372 22:0.660608 23:1 24:0.545081 25:0.987042 26:0.414151 27:0.741843 28:0.036763 29:0.508738 31:0.270716 32:0.036763 33:0.298957 34:0.308123 35:0.18865 36:0.299651 37:0.10014 38:0.348994 39:0.189049 40:0.342884 41:0.287594 42:0.350123 43:0.398432 44:0.355566 45:0.597648 46:0.357928 47:0.693468 48:0.312436 49:0.798591 50:0.304939 51:0.890225 52:0.351561 53:0.795601 54:0.344732 55:0.702239 56:0.353461 57:0.73254 58:0.362806 59:0.261413 60:0.362806 61:0.348063 62:0.415075 63:0.301349 64:0.3855 65:0.259286 66:0.374923 67:0.217423 68:0.385962 69:0.177354 70:0.40953 71:0.218353 72:0.426166 73:0.257559 74:0.430273 75:0.302279 76:0.425703 77:0.258422 78:0.402598 79:0.72955 80:0.402598 81:0.647418 82:0.415588 83:0.688019 84:0.388992 85:0.730414 86:0.374923 87:0.771945 88:0.388529 89:0.815802 90:0.411635 91:0.773407 92:0.425703 93:0.732075 94:0.433713 95:0.688949 96:0.429195 97:0.577846 98:0.516276 99:0.506213 100:0.514942 101:0.434049 102:0.516636 103:0.429331 104:0.611779 105:0.511263 106:0.577172 107:0.589342 108:0.610033 109:0.655592 110:0.573783 111:0.630341 112:0.626669 113:0.51133 114:0.64505 115:0.386404 116:0.628877 117:0.356236 118:0.57327 119:0.312579 120:0.7538 121:0.391122 122:0.715753 123:0.469333 124:0.702352 125:0.515848 126:0.71031 127:0.5611 128:0.702711 129:0.634527 130:0.716574 131:0.712074 132:0.752465 133:0.605688 134:0.744403 135:0.513921 136:0.744044 137:0.422154 138:0.743685 139:0.420028 140:0.755802 141:0.514652 142:0.762631 143:0.603562 144:0.756521 145:0.658117 146:0.786917 147:0.591667 148:0.801551 149:0.515582 150:0.802834 151:0.436109 152:0.800678 153:0.367134 154:0.784196 
1.118230435487539 0 0 0 0 2:0.409449 3:0.000209 4:0.536262 5:0.016479 6:0.639794 7:0.036799 8:0.743694 9:0.143915 10:0.89568 11:0.343761 12:0.981869 13:0.509322 14:1 15:0.66811 16:0.983498 17:0.857901 18:0.901776 19:0.964318 20:0.750631 21:0.990503 22:0.638585 23:1 24:0.528116 25:0.990713 26:0.406664 27:0.733608 28:0.036946 29:0.497102 31:0.256965 32:0.036946 33:0.263529 34:0.3035 35:0.148663 36:0.302344 37:0.065498 38:0.359733 39:0.158509 40:0.343441 41:0.257175 42:0.343126 43:0.372041 44:0.344282 45:0.585574 46:0.345123 47:0.687033 48:0.301766 49:0.794777 50:0.29609 51:0.889184 52:0.347961 53:0.791984 54:0.339132 55:0.692829 56:0.342495 57:0.727812 58:0.354951 59:0.246631 60:0.357631 61:0.336499 62:0.412182 63:0.287759 64:0.383015 65:0.244187 66:0.372872 67:0.201243 68:0.384433 69:0.159905 70:0.411604 71:0.202989 72:0.424795 73:0.243 74:0.431522 75:0.289016 76:0.426424 77:0.248377 78:0.397992 79:0.725019 80:0.397992 81:0.636548 82:0.411604 83:0.682424 84:0.381753 85:0.725368 86:0.370191 87:0.768941 88:0.380334 89:0.814119 90:0.406086 91:0.770198 92:0.423744 93:0.728231 94:0.42921 95:0.683681 96:0.425163 97:0.567768 98:0.50741 99:0.49389 100:0.506885 101:0.415474 102:0.509039 103:0.411982 104:0.607683 105:0.496264 106:0.568951 107:0.580965 108:0.604478 109:0.662803 110:0.580986 111:0.623071 112:0.623765 113:0.500733 114:0.643578 115:0.372111 116:0.625709 117:0.332938 118:0.588133 119:0.294393 120:0.751629 121:0.378675 122:0.712897 123:0.459046 124:0.69855 125:0.503596 126:0.702596 127:0.549612 128:0.697498 129:0.634174 130:0.708272 131:0.718386 132:0.746847 133:0.600936 134:0.736178 135:0.506319 136:0.736862 137:0.415264 138:0.740961 139:0.413798 140:0.750105 141:0.503875 142:0.752102 143:0.598981 144:0.748371 145:0.655331 146:0.781322 147:0.587599 148:0.793725 149:0.505132 150:0.795512 151:0.427694 152:0.79157 153:0.359332 154:0.782268 
0 0 7.411941146991626 0 0.4815428849975682 1:0.016937 2:0.393726 4:0.527025 5:0.013836 6:0.648734 7:0.04612 8:0.754756 9:0.168893 10:0.889694 11:0.359335 12:0.981668 13:0.497455 14:1 15:0.643607 16:0.978518 17:0.834685 18:0.885851 19:0.948553 20:0.758347 21:0.984017 22:0.653017 23:1 24:0.529734 25:0.982904 26:0.397757 27:0.733301 28:0.036979 29:0.507952 31:0.284033 32:0.036979 33:0.293177 34:0.252425 35:0.182967 36:0.252551 37:0.095897 38:0.321217 39:0.191158 40:0.30005 41:0.284192 42:0.302255 43:0.394402 44:0.302129 45:0.610607 46:0.301625 47:0.717478 48:0.247575 49:0.831584 50:0.251039 51:0.917939 52:0.323359 53:0.822599 54:0.300869 55:0.725032 56:0.301751 57:0.729326 58:0.34566 59:0.280057 60:0.34566 61:0.359256 62:0.40412 63:0.319338 64:0.378229 65:0.278149 66:0.365692 67:0.234733 68:0.376528 69:0.194577 70:0.397631 71:0.235448 72:0.413506 73:0.276956 74:0.422704 75:0.31584 76:0.414955 77:0.279819 78:0.392655 79:0.729087 80:0.392655 81:0.643209 82:0.404309 83:0.688216 84:0.37678 85:0.727417 86:0.365692 87:0.768925 88:0.37489 89:0.808842 90:0.400781 91:0.769322 92:0.415207 93:0.730439 94:0.422956 95:0.688613 96:0.417097 97:0.569815 98:0.507371 99:0.497853 100:0.506426 101:0.421358 102:0.508567 103:0.416667 104:0.602306 105:0.496342 106:0.566776 107:0.577767 108:0.601865 109:0.646072 110:0.552224 111:0.627067 112:0.618244 113:0.49841 114:0.634056 115:0.364186 116:0.619315 117:0.345261 118:0.551027 119:0.309001 120:0.753685 121:0.377306 122:0.704044 123:0.451177 124:0.684956 125:0.496899 126:0.694406 127:0.540315 128:0.683571 129:0.614901 130:0.701461 131:0.686625 132:0.749402 133:0.58548 134:0.743354 135:0.49666 136:0.741401 137:0.411419 138:0.746378 139:0.410146 140:0.759733 141:0.49833 142:0.768363 143:0.584208 144:0.756709 145:0.644243 146:0.793877 147:0.577847 148:0.823485 149:0.500716 150:0.832304 151:0.416428 152:0.827265 153:0.351225 154:0.799861 
0 0 0 0 5.275473434093558 2:0.404987 3:0.003996 4:0.530838 5:0.018081 6:0.636752 7:0.049199 8:0.746812 9:0.15131 10:0.893959 11:0.3228 12:0.979621 13:0.477297 14:1 15:0.633975 16:0.989905 17:0.81277 18:0.912851 19:0.934496 20:0.785735 21:0.97752 22:0.668745 23:0.994632 24:0.550615 25:1 26:0.414987 27:0.749768 28:0.037151 29:0.522824 31:0.286233 32:0.037151 33:0.26234 34:0.250087 35:0.153651 36:0.255498 37:0.070832 38:0.323186 39:0.1637 40:0.2967 41:0.259192 42:0.294105 43:0.367397 44:0.295465 45:0.592929 46:0.291795 47:0.709085 48:0.242556 49:0.825443 50:0.251068 51:0.906486 52:0.329357 53:0.809097 54:0.297902 55:0.705695 56:0.289959 57:0.718852 58:0.34828 59:0.24668 60:0.3479 61:0.337329 62:0.413025 63:0.29152 64:0.387235 65:0.244985 66:0.371602 67:0.20515 68:0.383437 69:0.159785 70:0.412012 71:0.202002 72:0.427455 73:0.244703 74:0.436125 75:0.288614 76:0.427866 77:0.251443 78:0.402456 79:0.714978 80:0.402456 81:0.627639 82:0.412202 83:0.673003 84:0.383627 85:0.717157 86:0.371982 87:0.759616 88:0.384038 89:0.801106 90:0.409639 91:0.760786 92:0.428246 93:0.717117 94:0.433119 95:0.674416 96:0.424449 97:0.551762 98:0.503971 99:0.473786 100:0.50394 101:0.395568 102:0.507294 103:0.388304 104:0.608873 105:0.469427 106:0.564887 107:0.561771 108:0.60631 109:0.653671 110:0.593367 111:0.607822 112:0.628714 113:0.476813 114:0.643334 115:0.343423 116:0.630676 117:0.302902 118:0.591532 119:0.273278 120:0.763457 121:0.350567 122:0.712509 123:0.429996 124:0.692225 125:0.477257 126:0.6977 127:0.520927 128:0.692826 129:0.606328 130:0.710167 131:0.693627 132:0.761558 133:0.568875 134:0.74928 135:0.477943 136:0.748679 137:0.38677 138:0.751464 139:0.385801 140:0.765007 141:0.476248 142:0.772381 143:0.567664 144:0.76621 145:0.638657 146:0.803297 147:0.563305 148:0.827157 149:0.47645 150:0.830132 151:0.394398 152:0.826524 153:0.326512 154:0.806557 
0 0 0 0 5.275473434093558 2:0.371601 3:0.000534 4:0.49255 5:0.01768 6:0.605291 7:0.046167 8:0.717757 9:0.144706 10:0.867544 11:0.309093 12:0.972812 13:0.475149 14:1 15:0.639002 16:0.98432 17:0.821536 18:0.890147 19:0.938688 20:0.739031 21:0.97745 22:0.609326 23:1 24:0.495622 25:0.999666 26:0.37857 27:0.760491 28:0.033194 29:0.520315 31:0.27787 32:0.033194 33:0.273067 34:0.271331 35:0.15925 36:0.266288 37:0.059577 38:0.315529 39:0.161452 40:0.309156 41:0.263927 42:0.314474 43:0.383415 44:0.31938 45:0.576423 46:0.318601 47:0.676096 48:0.269359 49:0.794983 50:0.262574 51:0.893789 52:0.307001 53:0.791514 54:0.30558 55:0.683968 56:0.31209 57:0.729935 58:0.322681 59:0.247315 60:0.322681 61:0.335379 62:0.379075 63:0.288612 64:0.352895 65:0.242444 66:0.338407 67:0.197678 68:0.351199 69:0.153513 70:0.375682 71:0.19968 72:0.39017 73:0.239776 74:0.397002 75:0.290613 76:0.391867 77:0.249516 78:0.365549 79:0.732137 80:0.365549 81:0.636133 82:0.375682 83:0.680299 84:0.351199 85:0.730736 86:0.33827 87:0.776703 88:0.348861 89:0.8176 90:0.371281 91:0.773234 92:0.391866 93:0.728067 94:0.396864 95:0.6823 96:0.39017 97:0.555874 98:0.471276 99:0.476483 100:0.473202 101:0.397091 102:0.475127 103:0.391154 104:0.580624 105:0.474415 106:0.543487 107:0.561478 108:0.580395 109:0.651411 110:0.562606 111:0.602175 112:0.598918 113:0.478017 114:0.613635 115:0.357929 116:0.597038 117:0.310561 118:0.559167 119:0.279472 120:0.727706 121:0.357062 122:0.690706 123:0.430182 124:0.677227 125:0.475749 126:0.680024 127:0.526586 128:0.674889 129:0.606778 130:0.688552 131:0.688372 132:0.729494 133:0.574154 134:0.716657 135:0.47775 136:0.718995 137:0.386817 138:0.717299 139:0.387818 140:0.736784 141:0.479151 142:0.746275 143:0.569684 144:0.740177 145:0.633465 146:0.765944 147:0.560544 148:0.78332 149:0.475682 150:0.789281 151:0.39589 152:0.783412 153:0.32684 154:0.765577 
0 0 18.15808089728996 0.184762168161535 0 2:0.364651 3:0.009552 4:0.484521 5:0.024267 6:0.592693 7:0.061572 8:0.712113 9:0.149864 10:0.861681 11:0.292371 12:0.971652 13:0.454369 14:1 15:0.614948 16:0.985781 17:0.789467 18:0.890029 19:0.917904 20:0.74469 21:0.968891 22:0.608351 23:0.9929 24:0.49568 25:1 26:0.37554 27:0.755389 28:0.034917 29:0.520976 31:0.277785 32:0.034917 33:0.269266 34:0.278978 35:0.163418 36:0.269079 37:0.07035 38:0.309305 39:0.164838 40:0.311645 41:0.265006 42:0.317765 43:0.376275 44:0.323704 45:0.581645 46:0.320374 47:0.685685 48:0.276098 49:0.796437 50:0.266559 51:0.892087 52:0.303726 53:0.792307 54:0.309215 55:0.692526 56:0.314705 57:0.726346 58:0.329644 59:0.243191 60:0.329734 61:0.333678 62:0.3786 63:0.288499 64:0.356102 65:0.238157 66:0.345302 67:0.199432 68:0.349802 69:0.155802 70:0.37374 71:0.195172 72:0.388589 73:0.239835 74:0.395608 75:0.28411 76:0.391019 77:0.244482 78:0.36843 79:0.722086 80:0.36843 81:0.627985 82:0.3777 83:0.677165 84:0.353672 85:0.726862 86:0.345122 87:0.765974 88:0.352232 89:0.805602 90:0.37482 91:0.761714 92:0.391019 93:0.722989 94:0.395518 95:0.672777 96:0.388589 97:0.542145 98:0.468143 99:0.469988 100:0.469312 101:0.392152 102:0.466703 103:0.379114 104:0.575324 105:0.46134 106:0.543016 107:0.55131 108:0.576404 109:0.645282 110:0.563265 111:0.585259 112:0.595212 113:0.463663 114:0.612671 115:0.346457 116:0.595212 117:0.300891 118:0.561105 119:0.278559 120:0.724082 121:0.349555 122:0.688085 123:0.421324 124:0.675306 125:0.465858 126:0.678456 127:0.510262 128:0.677736 129:0.582806 130:0.688175 131:0.667484 132:0.729392 133:0.550406 134:0.715803 135:0.461598 136:0.717243 137:0.378211 138:0.714723 139:0.378985 140:0.737941 141:0.462631 142:0.7482 143:0.551181 144:0.739021 145:0.607719 146:0.769078 147:0.536078 148:0.785727 149:0.4585 150:0.790857 151:0.386085 152:0.784287 153:0.324384 154:0.765929 
0 0 0 2.949763823644531 0 2:0.399325 3:0.007168 4:0.528585 5:0.022897 6:0.645909 7:0.061523 8:0.7703 9:0.166152 10:0.897361 11:0.343654 12:0.98131 13:0.502041 14:1 15:0.639323 16:0.984058 17:0.803484 18:0.913931 19:0.916874 20:0.786477 21:0.964261 22:0.656353 23:0.987556 24:0.537537 25:1 26:0.406 27:0.7556 28:0.033768 29:0.528123 31:0.29995 32:0.03683 33:0.302439 34:0.297942 35:0.181682 36:0.299199 37:0.091886 38:0.363122 39:0.194425 40:0.342705 41:0.299452 42:0.343883 43:0.42001 44:0.345689 45:0.634345 46:0.342076 47:0.742359 48:0.297314 49:0.851468 50:0.295587 51:0.937183 52:0.354327 53:0.844798 54:0.338307 55:0.747337 56:0.340506 57:0.750622 58:0.349851 59:0.287208 60:0.352599 61:0.377003 62:0.408434 63:0.332006 64:0.382048 65:0.286013 66:0.370975 67:0.242509 68:0.381498 69:0.202091 70:0.404429 71:0.243604 72:0.424533 73:0.285913 74:0.432386 75:0.329218 76:0.424925 77:0.28442 78:0.395477 79:0.73987 80:0.395477 81:0.661224 82:0.407649 83:0.705724 84:0.381812 85:0.749427 86:0.368227 87:0.791538 88:0.379142 89:0.832653 90:0.405371 91:0.788751 92:0.42202 93:0.749328 94:0.429637 95:0.703136 96:0.421627 97:0.603186 98:0.521988 99:0.529418 100:0.519004 101:0.459333 102:0.51924 103:0.452563 104:0.62337 105:0.536486 106:0.589917 107:0.608064 108:0.62659 109:0.679542 110:0.604916 111:0.637929 112:0.646223 113:0.527825 114:0.663264 115:0.416227 116:0.643396 117:0.372026 118:0.604759 119:0.318367 120:0.771478 121:0.405774 122:0.744307 123:0.480538 124:0.731977 125:0.526929 126:0.736925 127:0.569836 128:0.73559 129:0.635241 130:0.747448 131:0.707218 132:0.777996 133:0.602588 134:0.770693 135:0.520856 136:0.770457 137:0.435241 138:0.770064 139:0.430961 140:0.776033 141:0.516177 142:0.782551 143:0.60219 144:0.776818 145:0.650473 146:0.812549 147:0.59104 148:0.828569 149:0.516874 150:0.83171 151:0.439423 152:0.825507 153:0.374415 154:0.807523 
0 2.528629318846133 0 0 1.767376367108434 2:0.378906 3:0.005025 4:0.507812 5:0.030151 6:0.621094 7:0.070352 8:0.753906 9:0.19598 10:0.898438 11:0.371859 12:0.984375 13:0.517588 14:1 15:0.663317 16:0.980469 17:0.829146 18:0.898438 19:0.939699 20:0.765625 21:0.9799 22:0.632812 23:1 24:0.511719 25:1 26:0.378906 27:0.728643 28:0.035156 29:0.512563 31:0.296482 32:0.03125 33:0.316583 34:0.242188 35:0.20603 36:0.25 37:0.115578 38:0.316406 39:0.211055 40:0.292969 41:0.311558 42:0.289062 43:0.417085 44:0.289062 45:0.582915 46:0.289062 47:0.688442 48:0.242188 49:0.80402 50:0.25 51:0.894472 52:0.320312 53:0.79397 54:0.296875 55:0.688442 56:0.289062 57:0.713568 58:0.320312 59:0.281407 60:0.316406 61:0.371859 62:0.378906 63:0.326633 64:0.355469 65:0.281407 66:0.34375 67:0.241206 68:0.355469 69:0.19598 70:0.382812 71:0.241206 72:0.398438 73:0.281407 74:0.40625 75:0.326633 76:0.398438 77:0.286432 78:0.371094 79:0.718593 80:0.371094 81:0.628141 82:0.382812 83:0.673367 84:0.355469 85:0.713568 86:0.34375 87:0.758794 88:0.355469 89:0.798995 90:0.382812 91:0.758794 92:0.398438 93:0.718593 94:0.40625 95:0.673367 96:0.398438 97:0.567839 98:0.496094 99:0.497487 100:0.5 101:0.432161 102:0.5 103:0.432161 104:0.597656 105:0.502513 106:0.5625 107:0.572864 108:0.597656 109:0.638191 110:0.578125 111:0.603015 112:0.621094 113:0.507538 114:0.636719 115:0.40201 116:0.621094 117:0.366834 118:0.578125 119:0.341709 120:0.761719 121:0.40201 122:0.726562 123:0.467337 124:0.710938 125:0.507538 126:0.714844 127:0.552764 128:0.710938 129:0.61809 130:0.722656 131:0.683417 132:0.757812 133:0.58794 134:0.746094 135:0.512563 136:0.746094 137:0.432161 138:0.746094 139:0.432161 140:0.757812 141:0.512563 142:0.765625 143:0.58794 144:0.757812 145:0.638191 146:0.789062 147:0.577889 148:0.804688 149:0.512563 150:0.808594 151:0.442211 152:0.804688 153:0.386935 154:0.792969 
0 0 0 0 5.275473434093558 2:0.377237 3:0.007106 4:0.510468 5:0.029199 6:0.627882 7:0.066519 8:0.745158 9:0.185526 10:0.893055 11:0.354332 12:0.977772 13:0.496806 14:1 15:0.638682 16:0.983029 17:0.815072 18:0.899096 19:0.934854 20:0.764711 21:0.978444 22:0.627098 23:0.996895 24:0.505396 25:1 26:0.375991 27:0.740969 28:0.033343 29:0.527259 31:0.309488 32:0.033342 33:0.297426 34:0.241238 35:0.185884 36:0.250092 37:0.100615 38:0.317515 39:0.196692 40:0.293119 41:0.293068 42:0.288323 43:0.399654 44:0.287355 45:0.582373 46:0.285694 47:0.683167 48:0.237733 49:0.794889 50:0.240638 51:0.887323 52:0.310367 53:0.785454 54:0.28777 55:0.683884 56:0.284772 57:0.714874 58:0.319775 59:0.283394 60:0.319775 61:0.365498 62:0.377836 63:0.324536 64:0.354685 65:0.278677 66:0.343341 67:0.238252 68:0.355469 69:0.198006 70:0.379358 71:0.238849 72:0.394669 73:0.279573 74:0.40214 75:0.325193 76:0.397805 77:0.289246 78:0.370688 79:0.720726 80:0.370688 81:0.629426 82:0.375438 83:0.674748 84:0.351503 85:0.715233 86:0.343295 87:0.756016 88:0.354685 89:0.796979 90:0.377836 91:0.756613 92:0.393885 93:0.716128 94:0.402094 95:0.670329 96:0.394669 97:0.56016 98:0.493682 99:0.489103 100:0.494328 101:0.418045 102:0.494973 103:0.419598 104:0.596892 105:0.490118 106:0.560967 107:0.561713 108:0.5956 109:0.627336 110:0.571481 111:0.59754 112:0.614877 113:0.491193 114:0.631525 115:0.389443 116:0.616768 117:0.353198 118:0.570052 119:0.320416 120:0.750692 121:0.38592 122:0.718733 123:0.451723 124:0.706373 125:0.492387 126:0.709924 127:0.538007 128:0.705589 129:0.604168 130:0.71675 131:0.675703 132:0.747463 133:0.579089 134:0.73658 135:0.492805 136:0.737364 137:0.416732 138:0.741976 139:0.411835 140:0.753782 141:0.493163 142:0.760884 143:0.574252 144:0.752306 145:0.625425 146:0.779284 147:0.564758 148:0.795517 149:0.49382 150:0.804003 151:0.422643 152:0.796809 153:0.366633 154:0.785556 
0 0.713896876700356 0 0 0 2:0.371862 3:0.012093 4:0.508421 5:0.038906 6:0.621419 7:0.080968 8:0.745994 9:0.188573 10:0.885595 11:0.345718 12:0.977891 13:0.491763 14:1 15:0.632259 16:0.987016 17:0.786891 18:0.911427 19:0.915586 20:0.781405 21:0.963781 22:0.6443 23:0.992055 24:0.51909 25:1 26:0.378445 27:0.748569 28:0.029282 29:0.532071 31:0.311485 32:0.033232 33:0.299568 34:0.2442 35:0.194182 36:0.252962 37:0.109709 38:0.316203 39:0.204872 40:0.295819 41:0.300269 42:0.291052 43:0.405772 44:0.290099 45:0.591599 46:0.284514 47:0.691436 48:0.240659 49:0.797056 50:0.247514 51:0.883397 52:0.309211 53:0.78765 54:0.290553 55:0.692137 56:0.287511 57:0.717724 58:0.318518 59:0.28064 60:0.322468 61:0.366924 62:0.380261 63:0.321358 64:0.357243 65:0.275967 66:0.345939 67:0.235892 68:0.354111 69:0.196109 70:0.381804 71:0.236535 72:0.397058 73:0.281867 74:0.404458 75:0.321942 76:0.396286 77:0.281341 78:0.369319 79:0.713459 80:0.369319 81:0.628169 82:0.3779 83:0.673034 84:0.354065 85:0.718074 86:0.341944 87:0.758441 88:0.353294 89:0.798983 90:0.376356 91:0.75406 92:0.396286 93:0.713985 94:0.404458 95:0.668594 96:0.393154 97:0.569751 98:0.503382 99:0.499416 100:0.504018 101:0.429081 102:0.504653 103:0.425634 104:0.610115 105:0.500467 106:0.574295 107:0.571328 108:0.608798 109:0.64143 110:0.592545 111:0.59674 112:0.628093 113:0.501519 114:0.644573 115:0.400748 116:0.625959 117:0.36003 118:0.591184 119:0.332399 120:0.759341 121:0.397243 122:0.727516 123:0.457355 124:0.715259 125:0.497605 126:0.7188 127:0.542762 128:0.714487 129:0.603225 130:0.725655 131:0.669062 132:0.760203 133:0.573431 134:0.749353 135:0.498014 136:0.74613 137:0.422654 138:0.746811 139:0.422888 140:0.762428 141:0.498364 142:0.769556 143:0.573607 144:0.761066 145:0.61929 146:0.791892 147:0.56426 148:0.808008 149:0.499007 150:0.812503 151:0.428555 152:0.80533 153:0.373058 154:0.790212 
3.272836044294539 0 18.99467872424916 62.84899774210567 0 1:0.005885 2:0.383425 4:0.501413 5:0.016533 6:0.61903 7:0.046423 8:0.732852 9:0.171586 10:0.887963 11:0.375864 12:0.98103 13:0.524379 14:1 15:0.676256 16:0.976045 17:0.870914 18:0.872787 19:0.970484 20:0.735382 21:0.998693 22:0.61345 23:1 24:0.491965 25:0.983374 26:0.370778 27:0.718943 28:0.035783 29:0.507192 31:0.288343 32:0.035783 33:0.303848 34:0.285597 35:0.200355 36:0.273025 37:0.10723 38:0.313867 39:0.196992 40:0.31595 41:0.291519 42:0.328671 43:0.394825 44:0.334102 45:0.578741 46:0.334623 47:0.671586 48:0.283068 49:0.778909 50:0.27057 51:0.874276 52:0.315429 53:0.78003 54:0.313421 55:0.681674 56:0.32577 57:0.704371 58:0.336111 59:0.273865 60:0.339682 61:0.355969 62:0.391906 63:0.314964 64:0.367579 65:0.274239 66:0.353965 67:0.234168 68:0.365347 69:0.194377 70:0.387442 71:0.230712 72:0.404702 73:0.275733 74:0.4111 75:0.315898 76:0.403288 77:0.279376 78:0.378887 79:0.709976 80:0.378887 81:0.624977 82:0.387442 83:0.664674 84:0.361777 85:0.704745 86:0.350394 87:0.745376 88:0.360437 89:0.786288 90:0.381193 91:0.746404 92:0.399717 93:0.706239 94:0.407529 95:0.665701 96:0.401056 97:0.556137 98:0.49933 99:0.488885 100:0.500446 101:0.417243 102:0.505208 103:0.415375 104:0.605267 105:0.490753 106:0.571864 107:0.572203 108:0.599092 109:0.633944 110:0.558771 111:0.608537 112:0.616352 113:0.497011 114:0.639637 115:0.37988 116:0.620146 117:0.351485 118:0.563458 119:0.320194 120:0.739027 121:0.391182 122:0.709269 123:0.462731 124:0.700937 125:0.503176 126:0.703839 127:0.547824 128:0.695953 129:0.619746 130:0.701904 131:0.696619 132:0.725636 133:0.593499 134:0.727347 135:0.508407 136:0.732332 137:0.423221 138:0.733745 139:0.419017 140:0.744532 141:0.508874 142:0.750186 143:0.593872 144:0.741631 145:0.648235 146:0.762163 147:0.586027 148:0.78463 149:0.509995 150:0.793037 151:0.438165 152:0.790656 153:0.37493 154:0.773843 
3.272836044294539 0 0.7505792708323344 83.92908540367843 0 1:0.004587 2:0.382979 4:0.503546 5:0.013761 6:0.617021 7:0.045872 8:0.737589 9:0.169725 10:0.897163 11:0.362385 12:0.98227 13:0.509174 14:1 15:0.674312 16:0.975177 17:0.876147 18:0.868794 19:0.981651 20:0.705674 21:0.995413 22:0.599291 23:1 24:0.489362 25:0.990826 26:0.368794 27:0.683486 28:0.035461 29:0.463303 31:0.247706 32:0.035461 33:0.302752 34:0.269504 35:0.197248 36:0.258865 37:0.105505 38:0.304965 39:0.201835 40:0.301418 41:0.293578 42:0.312057 43:0.394495 44:0.315603 45:0.577982 46:0.319149 47:0.678899 48:0.269504 49:0.788991 50:0.262411 51:0.880734 52:0.312057 53:0.784404 54:0.304965 55:0.688073 56:0.312057 57:0.706422 58:0.333333 59:0.266055 60:0.329787 61:0.353211 62:0.382979 63:0.307339 64:0.358156 65:0.266055 66:0.347518 67:0.224771 68:0.358156 69:0.188073 70:0.379433 71:0.229358 72:0.393617 73:0.266055 74:0.400709 75:0.311927 76:0.393617 77:0.270642 78:0.37234 79:0.706422 80:0.37234 81:0.623853 82:0.382979 83:0.665138 84:0.358156 85:0.711009 86:0.347518 87:0.747706 88:0.358156 89:0.793578 90:0.379433 91:0.752294 92:0.393617 93:0.711009 94:0.400709 95:0.669725 96:0.397163 97:0.550459 98:0.478723 99:0.481651 100:0.478723 101:0.408257 102:0.478723 103:0.40367 104:0.58156 105:0.477064 106:0.546099 107:0.56422 108:0.578014 109:0.637615 110:0.546099 111:0.600917 112:0.595745 113:0.486239 114:0.617021 115:0.366972 116:0.599291 117:0.334862 118:0.549645 119:0.298165 120:0.723404 121:0.376147 122:0.695035 123:0.444954 124:0.684397 125:0.490826 126:0.687943 127:0.53211 128:0.680851 129:0.610092 130:0.691489 131:0.692661 132:0.719858 133:0.582569 134:0.712766 135:0.490826 136:0.716312 137:0.40367 138:0.716312 139:0.40367 140:0.72695 141:0.490826 142:0.734043 143:0.582569 144:0.72695 145:0.637615 146:0.748227 147:0.568807 148:0.762411 149:0.495413 150:0.769504 151:0.422018 152:0.765957 153:0.357798 154:0.755319 
0 0 0 19.00640305096125 0 1:0.007542 2:0.388411 4:0.502373 5:0.010511 6:0.612627 7:0.03474 8:0.733447 9:0.163658 10:0.899681 11:0.363941 12:0.987025 13:0.517982 14:1 15:0.680603 16:0.977311 17:0.878435 18:0.879588 19:0.985011 20:0.725662 21:0.996936 22:0.600986 23:1 24:0.490621 25:0.984963 26:0.380403 27:0.713363 28:0.03381 29:0.495687 31:0.274381 32:0.033847 33:0.29564 34:0.272151 35:0.187037 36:0.273041 37:0.101862 38:0.334248 39:0.192175 40:0.31927 41:0.291728 42:0.318455 43:0.395805 44:0.317602 45:0.581381 46:0.319641 47:0.684799 48:0.268963 49:0.797973 50:0.271595 51:0.889324 52:0.334915 53:0.789536 54:0.317936 55:0.689983 56:0.318751 57:0.708272 58:0.332839 59:0.273816 60:0.332839 61:0.356022 62:0.389115 63:0.314966 64:0.364536 65:0.269574 66:0.35423 67:0.228942 68:0.361682 69:0.193071 70:0.386891 71:0.234033 72:0.404352 73:0.274853 74:0.411137 75:0.315484 76:0.403685 77:0.278954 78:0.379069 79:0.71341 80:0.379069 81:0.627528 82:0.386891 83:0.667924 84:0.361645 85:0.708508 86:0.350634 87:0.749375 88:0.360977 89:0.790431 90:0.385556 91:0.749894 92:0.400126 93:0.713787 94:0.407541 95:0.668442 96:0.400793 97:0.556446 98:0.487136 99:0.484044 100:0.487729 101:0.416215 102:0.491844 103:0.41301 104:0.591533 105:0.489465 106:0.555313 107:0.571388 108:0.590235 109:0.643413 110:0.56117 111:0.607825 112:0.607733 113:0.494933 114:0.626455 115:0.377092 116:0.613183 117:0.340278 118:0.567213 119:0.310959 120:0.745422 121:0.387415 122:0.709202 123:0.455102 124:0.694409 125:0.500448 126:0.701157 127:0.545605 128:0.693668 129:0.618147 130:0.703752 131:0.699976 132:0.731556 133:0.59128 134:0.725328 135:0.500825 136:0.729629 137:0.414848 138:0.730333 139:0.414989 140:0.74101 141:0.501013 142:0.743864 143:0.591421 144:0.736005 145:0.646099 146:0.764032 147:0.578412 148:0.778824 149:0.506057 150:0.782976 151:0.42913 152:0.783607 153:0.365638 154:0.773448 
0 0 18.99467872424916 0 0 1:0.003186 2:0.378256 4:0.498694 5:0.019743 6:0.619516 7:0.057637 8:0.747945 9:0.173199 10:0.888628 11:0.354316 12:0.979293 13:0.500579 14:1 15:0.638637 16:0.984057 17:0.815312 18:0.895736 19:0.938116 20:0.762697 21:0.978374 22:0.628275 23:1 24:0.504495 25:0.998697 26:0.38033 27:0.741794 28:0.032808 29:0.527032 31:0.305947 32:0.032808 33:0.308554 34:0.281137 35:0.193908 36:0.279216 37:0.100743 38:0.332424 39:0.201921 40:0.323166 41:0.302713 42:0.328506 43:0.412773 44:0.33035 45:0.614742 46:0.326431 47:0.721471 48:0.280753 49:0.831821 50:0.271648 51:0.917503 52:0.327852 53:0.82598 54:0.319017 55:0.724899 56:0.324625 57:0.729195 58:0.335651 59:0.293252 60:0.339301 61:0.374445 62:0.391779 63:0.333848 64:0.36554 65:0.292769 66:0.357549 67:0.251303 68:0.364157 69:0.209452 70:0.385363 71:0.250241 72:0.404303 73:0.291321 74:0.412293 75:0.332786 76:0.405686 77:0.29219 78:0.379447 79:0.728036 80:0.379447 81:0.645202 82:0.389013 83:0.68715 84:0.364157 85:0.728712 86:0.353899 87:0.769695 88:0.36554 89:0.810485 90:0.384479 91:0.768633 92:0.405686 93:0.727167 94:0.412293 95:0.686088 96:0.404303 97:0.577525 98:0.519324 99:0.508737 100:0.518171 101:0.444439 102:0.520745 103:0.437247 104:0.619209 105:0.511392 106:0.591241 107:0.579504 108:0.617941 109:0.639989 110:0.586093 111:0.606536 112:0.63665 113:0.509751 114:0.653285 115:0.409346 116:0.633346 117:0.378596 118:0.581713 119:0.351033 120:0.756512 121:0.411421 122:0.728314 123:0.466837 124:0.714637 125:0.507917 126:0.722628 127:0.544796 128:0.715943 129:0.599537 130:0.727814 131:0.65838 132:0.75801 133:0.575932 134:0.752977 135:0.507144 136:0.751825 137:0.433771 138:0.750596 139:0.433675 140:0.754245 141:0.502269 142:0.762697 143:0.575932 144:0.752977 145:0.616335 146:0.786516 147:0.565505 148:0.800269 149:0.50111 150:0.806493 151:0.437005 152:0.801767 153:0.391533 154:0.7864 
0 0 18.99467872424916 0 0 2:0.390895 3:0.013397 4:0.518593 5:0.038428 6:0.626806 7:0.079147 8:0.735554 9:0.185969 10:0.878366 11:0.337446 12:0.974987 13:0.487925 14:1 15:0.625066 16:0.984796 17:0.765732 18:0.910068 19:0.888536 20:0.783039 21:0.942652 22:0.665597 23:0.981315 24:0.543651 25:1 26:0.405119 27:0.775839 28:0.031657 29:0.547153 31:0.304013 32:0.035447 33:0.294436 34:0.285625 35:0.179858 36:0.273765 37:0.082672 38:0.322142 39:0.182502 40:0.317594 41:0.286856 42:0.325129 43:0.401669 44:0.333021 45:0.622011 46:0.328607 47:0.729655 48:0.280587 49:0.840178 50:0.272427 51:0.931488 52:0.323257 53:0.837593 54:0.316078 55:0.737529 56:0.324594 57:0.746577 58:0.348761 59:0.264293 60:0.352194 61:0.355603 62:0.403023 63:0.309713 64:0.381577 65:0.263353 66:0.368067 67:0.220812 68:0.378545 69:0.177566 70:0.400927 71:0.218462 72:0.418227 73:0.265057 74:0.427769 75:0.307362 76:0.421259 77:0.267172 78:0.392055 79:0.733533 80:0.392055 81:0.649157 82:0.401106 83:0.697632 84:0.378901 85:0.745402 86:0.368602 87:0.786768 88:0.377965 89:0.827428 90:0.399233 91:0.784417 92:0.417648 93:0.742112 94:0.424157 95:0.695282 96:0.418584 97:0.585287 98:0.506287 99:0.51184 100:0.507758 101:0.433398 102:0.505083 103:0.432517 104:0.608436 105:0.512839 106:0.579365 107:0.584406 108:0.60964 109:0.659263 110:0.584359 111:0.615077 112:0.622615 113:0.509078 114:0.642857 115:0.4002 116:0.623239 117:0.355485 118:0.581951 119:0.319701 120:0.743758 121:0.400023 122:0.714687 123:0.463482 124:0.704922 125:0.505318 126:0.706349 127:0.547388 128:0.703808 129:0.609437 130:0.717853 131:0.681004 132:0.748127 133:0.576415 134:0.74456 135:0.503202 136:0.742064 137:0.424525 138:0.743357 139:0.424525 140:0.743357 141:0.502497 142:0.753968 143:0.57618 144:0.748529 145:0.626829 146:0.77809 147:0.563135 148:0.791823 149:0.500147 150:0.793651 151:0.432399 152:0.787364 153:0.370351 154:0.773319 
0 0 0 0 3.099003554411797 1:0.000773 2:0.389789 4:0.53219 5:0.025612 6:0.64987 7:0.055454 8:0.757066 9:0.176463 10:0.904517 11:0.363297 12:0.984957 13:0.512374 14:1 15:0.665135 16:0.98373 17:0.847602 18:0.897539 19:0.952052 20:0.756996 21:0.98517 22:0.645347 23:1 24:0.523564 25:0.987444 26:0.388316 27:0.721272 28:0.031278 29:0.499682 31:0.275225 32:0.031278 33:0.290783 34:0.281086 35:0.178009 36:0.275896 37:0.080384 38:0.332983 39:0.179101 40:0.317554 41:0.282868 42:0.322884 43:0.391138 44:0.328144 45:0.571468 46:0.332281 47:0.673778 48:0.282068 49:0.78628 50:0.276843 51:0.886907 52:0.334315 53:0.782868 54:0.318571 55:0.679374 56:0.323655 57:0.711082 58:0.330107 59:0.26044 60:0.326706 61:0.352243 62:0.391262 63:0.306387 64:0.36072 65:0.260895 66:0.344063 67:0.216222 68:0.358651 69:0.171913 70:0.387124 71:0.217496 72:0.407252 73:0.262715 74:0.413493 75:0.30757 76:0.405849 77:0.270812 78:0.378638 79:0.716859 80:0.378638 81:0.622646 82:0.393997 83:0.666864 84:0.362052 85:0.711537 86:0.347465 87:0.756937 88:0.360649 89:0.802702 90:0.38772 91:0.75812 92:0.405779 93:0.713356 94:0.416895 95:0.668047 96:0.407181 97:0.558093 98:0.509608 99:0.486125 100:0.514202 101:0.414066 102:0.515324 103:0.420935 104:0.605512 105:0.487581 106:0.569745 107:0.560641 108:0.60681 109:0.627559 110:0.581457 111:0.597216 112:0.627078 113:0.493995 114:0.642577 115:0.389955 116:0.626832 117:0.357247 118:0.582194 119:0.321354 120:0.759871 121:0.387726 122:0.71369 123:0.454918 124:0.698752 125:0.500045 126:0.701522 127:0.540488 128:0.697419 129:0.612911 130:0.710183 131:0.686061 132:0.750719 133:0.586616 134:0.738376 135:0.500955 136:0.736237 137:0.41998 138:0.740971 139:0.420617 140:0.765271 141:0.501865 142:0.770952 143:0.587253 144:0.762676 145:0.642116 146:0.793078 147:0.57952 148:0.811417 149:0.507643 150:0.819482 151:0.430898 152:0.813732 153:0.367391 154:0.797356 
0 2.17662564216478 0 0 1.679001280615442 2:0.417017 3:0.014186 4:0.547595 5:0.050831 6:0.668936 7:0.120892 8:0.818108 9:0.250571 10:0.922625 11:0.413232 12:0.988244 13:0.561549 14:1 15:0.70766 16:0.974988 17:0.835054 18:0.895963 19:0.923871 20:0.802273 21:0.975885 22:0.663957 23:0.996296 24:0.541237 25:1 26:0.404601 27:0.732603 28:0.035179 29:0.484869 31:0.246119 32:0.035179 33:0.30688 34:0.267424 35:0.197336 36:0.267005 37:0.110489 38:0.327405 39:0.208094 40:0.307402 41:0.304516 42:0.307372 43:0.409488 44:0.31097 45:0.63295 46:0.31196 47:0.736504 48:0.265475 49:0.845851 50:0.269224 51:0.933959 52:0.335623 53:0.839113 54:0.309021 55:0.738317 56:0.308901 57:0.757625 58:0.352927 59:0.27114 60:0.352927 61:0.367996 62:0.419626 63:0.317086 64:0.391195 65:0.269564 66:0.379559 67:0.225037 68:0.391375 69:0.184096 70:0.416657 71:0.231027 72:0.43828 73:0.274372 74:0.446437 75:0.318701 76:0.43795 77:0.272362 78:0.40634 79:0.758846 80:0.40634 81:0.670384 82:0.419986 83:0.716093 84:0.388196 85:0.76062 86:0.37638 87:0.803964 88:0.384537 89:0.8505 90:0.412818 91:0.809756 92:0.434771 93:0.765427 94:0.443258 95:0.717511 96:0.43828 97:0.610805 98:0.538028 99:0.531878 100:0.538658 101:0.457128 102:0.542766 103:0.459768 104:0.646263 105:0.545433 106:0.605836 107:0.626369 108:0.645303 109:0.706281 110:0.628029 111:0.660178 112:0.666477 113:0.545275 114:0.682552 115:0.419024 116:0.668216 117:0.368508 118:0.633127 119:0.370991 120:0.81334 121:0.439357 122:0.768984 123:0.506147 124:0.75126 125:0.549689 126:0.756088 127:0.593821 128:0.75093 129:0.658641 130:0.766495 131:0.721885 132:0.808691 133:0.630034 134:0.805542 135:0.551304 136:0.802843 137:0.476554 138:0.806952 139:0.472181 140:0.806802 141:0.550713 142:0.81283 143:0.625463 144:0.808721 145:0.684333 146:0.850768 147:0.630467 148:0.872271 149:0.559697 150:0.883187 151:0.481165 152:0.877159 153:0.416739 154:0.854936 
0 0.4295132268486024 0 0 1.377505882137 2:0.40754 3:0.01126 4:0.539825 5:0.040918 6:0.656108 7:0.096348 8:0.786285 9:0.227231 10:0.905299 11:0.404187 12:0.982663 13:0.557591 14:1 15:0.704096 16:0.977557 17:0.826732 18:0.901677 19:0.919194 20:0.811786 21:0.974267 22:0.674692 23:0.997899 24:0.549948 25:1 26:0.414725 27:0.789065 28:0.036188 29:0.548432 31:0.30431 32:0.036307 33:0.332659 34:0.271337 35:0.21383 36:0.268131 37:0.118393 38:0.328247 39:0.220729 40:0.307911 41:0.326196 42:0.314057 43:0.436065 44:0.320321 45:0.638833 46:0.319192 47:0.733635 48:0.272258 49:0.843979 50:0.268636 51:0.933547 52:0.330444 53:0.837516 54:0.311355 55:0.740375 56:0.315333 57:0.773998 58:0.349236 59:0.284842 60:0.349236 61:0.382895 62:0.417871 63:0.33151 64:0.386789 65:0.283732 66:0.372302 67:0.239087 68:0.384296 69:0.193648 70:0.412765 71:0.236708 72:0.433724 73:0.284644 74:0.444916 75:0.333532 76:0.436337 77:0.286706 78:0.402078 79:0.775861 80:0.402078 81:0.682487 82:0.419356 83:0.728242 84:0.384296 85:0.772888 86:0.372302 87:0.820824 88:0.383494 89:0.863566 90:0.411043 91:0.822846 92:0.433041 93:0.778359 94:0.44174 95:0.730265 96:0.433843 97:0.624123 98:0.533264 99:0.544586 100:0.537717 101:0.469609 102:0.538994 103:0.473494 104:0.641383 105:0.563419 106:0.604216 107:0.641053 108:0.639305 109:0.716823 110:0.621553 111:0.67531 112:0.660027 113:0.55993 114:0.676711 115:0.428373 116:0.663263 117:0.381706 118:0.625709 119:0.368899 120:0.800237 121:0.445779 122:0.759418 123:0.517149 124:0.741547 125:0.561001 126:0.746029 127:0.605329 128:0.740626 129:0.675112 130:0.755707 131:0.734983 132:0.793617 133:0.642401 134:0.794419 135:0.563182 136:0.792281 137:0.479244 138:0.796616 139:0.475001 140:0.793202 141:0.562864 142:0.798872 143:0.638159 144:0.791005 145:0.693311 146:0.835387 147:0.639547 148:0.853733 149:0.564252 150:0.8616 151:0.485191 152:0.856167 153:0.419968 154:0.83791 
0.4439907305596238 0 8.703448089233682 0 3.337506161487562 1:0.010886 2:0.373798 4:0.482336 5:0.003186 6:0.587256 7:0.015559 8:0.703499 9:0.125106 10:0.888057 11:0.334112 12:0.979867 13:0.488052 14:1 15:0.651869 16:0.982762 17:0.86815 18:0.891079 19:0.982689 20:0.723547 21:0.998354 22:0.607559 23:1 24:0.491445 25:0.98768 26:0.371457 27:0.712086 28:0.031795 29:0.511576 31:0.300765 32:0.035541 33:0.306924 34:0.260364 35:0.208847 36:0.255725 37:0.119371 38:0.303609 39:0.208262 40:0.296927 41:0.301667 42:0.301524 43:0.395072 44:0.306121 45:0.572749 46:0.300247 47:0.67157 48:0.252447 49:0.783772 50:0.249723 51:0.871761 52:0.306717 53:0.778462 54:0.294629 55:0.680278 56:0.29748 57:0.689359 58:0.316294 59:0.278037 60:0.320039 61:0.35668 62:0.376947 63:0.314996 64:0.350345 65:0.273099 66:0.338725 67:0.235557 68:0.349621 69:0.193129 70:0.375458 71:0.234972 72:0.390823 73:0.276975 74:0.394952 75:0.314412 76:0.391547 77:0.2774 78:0.364987 79:0.688668 80:0.364987 81:0.60907 82:0.3755 83:0.651551 84:0.345918 85:0.693766 86:0.335064 87:0.73099 88:0.346642 89:0.772727 90:0.369499 91:0.730406 92:0.387844 93:0.69297 94:0.391249 95:0.650966 96:0.38712 97:0.542428 98:0.461054 99:0.476954 100:0.464204 101:0.406861 102:0.463565 103:0.405427 104:0.564697 105:0.471485 106:0.520346 107:0.545667 108:0.562229 109:0.625372 110:0.544224 111:0.587351 112:0.588831 113:0.475042 114:0.599047 115:0.372345 116:0.590619 117:0.335546 118:0.549076 119:0.30496 120:0.728612 121:0.371071 122:0.680514 123:0.436757 124:0.662382 125:0.478706 126:0.670256 127:0.520869 128:0.663148 129:0.595423 130:0.678812 131:0.674278 132:0.720737 133:0.567067 134:0.70103 135:0.482955 136:0.700264 137:0.398789 138:0.703243 139:0.398471 140:0.725717 141:0.482583 142:0.726483 143:0.566748 144:0.723504 145:0.617778 146:0.750192 147:0.552198 148:0.760833 149:0.482052 150:0.76394 151:0.411958 152:0.763301 153:0.351317 154:0.755257 
0 0 0 0 1.507052103001334 1:0.009458 2:0.383743 4:0.489333 5:0.004898 6:0.60316 7:0.033102 8:0.745072 9:0.134268 10:0.900756 11:0.312109 12:0.984067 13:0.463435 14:1 15:0.625908 16:0.984877 17:0.84023 18:0.904537 19:0.965377 20:0.731569 21:0.985137 22:0.614502 23:0.999662 24:0.505131 25:1 26:0.383608 27:0.666779 28:0.037267 29:0.452626 31:0.240331 32:0.033351 33:0.303834 34:0.266406 35:0.20098 36:0.26357 37:0.110454 38:0.31596 39:0.204188 40:0.302863 41:0.297078 42:0.309344 43:0.394866 44:0.31596 45:0.571525 46:0.312989 47:0.676406 48:0.268836 49:0.793954 50:0.272077 51:0.879581 52:0.333243 53:0.782469 54:0.310964 55:0.679446 56:0.312044 57:0.688566 58:0.327977 59:0.25722 60:0.323927 61:0.347914 62:0.381312 63:0.304847 64:0.356603 65:0.261105 66:0.347556 67:0.221415 68:0.358223 69:0.18105 70:0.384553 71:0.219557 72:0.401296 73:0.258571 74:0.406292 75:0.302989 76:0.399676 77:0.255024 78:0.374831 79:0.681641 80:0.374831 81:0.602601 82:0.388334 83:0.647864 84:0.362139 85:0.69262 86:0.347691 87:0.731295 88:0.360518 89:0.774193 90:0.389144 91:0.734335 92:0.403727 93:0.689917 94:0.410343 95:0.646006 96:0.405212 97:0.539943 98:0.476776 99:0.471373 100:0.474885 101:0.40787 102:0.469214 103:0.393515 104:0.574669 105:0.459044 106:0.533351 107:0.530653 108:0.57845 109:0.614423 110:0.568998 111:0.568485 112:0.610856 113:0.460226 114:0.619633 115:0.367674 116:0.60532 117:0.330181 118:0.565082 119:0.28306 120:0.748042 121:0.352981 122:0.718607 123:0.417328 124:0.704699 125:0.46124 126:0.70983 127:0.505489 128:0.707129 129:0.573552 130:0.720767 131:0.655464 132:0.754388 133:0.543489 134:0.73562 135:0.460226 136:0.733324 137:0.381861 138:0.731164 139:0.381186 140:0.746827 141:0.459382 142:0.752903 143:0.542814 144:0.751283 145:0.595507 146:0.780178 147:0.531329 148:0.79017 149:0.457693 150:0.79206 151:0.389292 152:0.786254 153:0.335754 154:0.776938 
1.779427540413173 2.293296058969989 0 0 0 1:0.000176 2:0.368956 4:0.480967 5:0.010367 6:0.585777 7:0.035319 8:0.70589 9:0.124583 10:0.868699 11:0.282903 12:0.973508 13:0.444913 14:1 15:0.60376 16:0.98534 17:0.806888 18:0.897119 19:0.942892 20:0.717593 21:0.973818 22:0.602623 23:0.994377 24:0.491127 25:1 26:0.371785 27:0.69443 28:0.035494 29:0.471622 31:0.250747 32:0.031764 33:0.27113 34:0.248843 35:0.164119 36:0.246142 37:0.074855 38:0.299897 39:0.167282 40:0.287294 41:0.269197 42:0.289866 43:0.370937 44:0.296168 45:0.544368 46:0.296811 47:0.643472 48:0.250772 49:0.76085 50:0.25 51:0.855386 52:0.300926 53:0.753822 54:0.290895 55:0.651731 56:0.292053 57:0.686347 58:0.315329 59:0.237392 60:0.315201 61:0.326832 62:0.365998 63:0.282024 64:0.342464 65:0.236514 66:0.333848 67:0.195221 68:0.344007 69:0.15832 70:0.369213 71:0.198559 72:0.38143 73:0.23915 74:0.386188 75:0.280267 76:0.379758 77:0.235284 78:0.359954 79:0.679142 80:0.359954 81:0.597083 82:0.369084 83:0.643999 84:0.347865 85:0.690388 86:0.337834 87:0.730803 88:0.346322 89:0.770515 90:0.369727 91:0.72887 92:0.387346 93:0.687928 94:0.390046 95:0.642242 96:0.38516 97:0.526972 98:0.44946 99:0.455632 100:0.447659 101:0.384291 102:0.445859 103:0.3741 104:0.553884 105:0.442453 106:0.510803 107:0.527148 108:0.554012 109:0.614479 110:0.541281 111:0.56686 112:0.577418 113:0.448954 114:0.589378 115:0.34247 116:0.575489 117:0.303286 118:0.540895 119:0.259533 120:0.711548 121:0.33263 122:0.676055 123:0.404674 124:0.662937 125:0.45036 126:0.667824 127:0.496398 128:0.665252 129:0.572131 130:0.682099 131:0.657178 132:0.71785 133:0.540854 134:0.696245 135:0.448954 136:0.697659 137:0.362327 138:0.695473 139:0.361448 140:0.714121 141:0.447724 142:0.723765 143:0.5398 144:0.718621 145:0.594623 146:0.746142 147:0.522931 148:0.7518 149:0.446319 150:0.753601 151:0.375154 152:0.748071 153:0.314532 154:0.73534 
0 3.46839138997297 0 0 3.765268530553123 1:0.025422 2:0.370997 4:0.482825 5:0.000348 6:0.584065 7:0.005224 8:0.696668 9:0.078008 10:0.870997 11:0.265192 12:0.977014 13:0.43096 14:1 15:0.603169 16:0.993156 17:0.844681 18:0.909349 19:0.979802 20:0.721591 21:0.99495 22:0.613249 23:1 24:0.504649 25:0.985722 26:0.376808 27:0.693192 28:0.035641 29:0.472401 31:0.248477 32:0.031767 33:0.2786 34:0.253745 35:0.182657 36:0.251291 37:0.099425 38:0.301653 39:0.185791 40:0.292614 41:0.271635 42:0.294809 43:0.367404 44:0.301007 45:0.53439 46:0.297779 47:0.627373 48:0.255165 49:0.733415 50:0.257877 51:0.832318 52:0.305398 53:0.731673 54:0.295325 55:0.635556 56:0.296617 57:0.675083 58:0.316374 59:0.235417 60:0.312629 61:0.318649 62:0.370997 63:0.274421 64:0.343621 65:0.229497 66:0.331224 67:0.193627 68:0.341555 69:0.151837 70:0.37048 71:0.191712 72:0.382748 73:0.231935 74:0.387526 75:0.272506 76:0.384814 77:0.228104 78:0.361183 79:0.667944 80:0.361183 81:0.591503 82:0.374225 83:0.633293 84:0.3453 85:0.674386 86:0.331353 87:0.719311 88:0.34375 89:0.763364 90:0.374871 91:0.717221 92:0.388688 93:0.676476 94:0.395145 95:0.631377 96:0.386493 97:0.516629 98:0.462293 99:0.446108 100:0.456741 101:0.375414 102:0.454933 103:0.360613 104:0.555785 105:0.428522 106:0.508781 107:0.512276 108:0.555914 109:0.603692 110:0.547004 111:0.55633 112:0.587035 113:0.43479 114:0.591426 115:0.328922 116:0.584969 117:0.29549 118:0.542872 119:0.256834 120:0.721849 121:0.319693 122:0.674716 123:0.391259 124:0.6578 125:0.436531 126:0.662707 127:0.482152 128:0.660124 129:0.56225 130:0.67717 131:0.645656 132:0.731792 133:0.525684 134:0.702479 135:0.434964 136:0.69641 137:0.353996 138:0.698089 139:0.353126 140:0.716813 141:0.438969 142:0.719008 143:0.524813 144:0.721204 145:0.578966 146:0.752583 147:0.508097 148:0.75452 149:0.432353 150:0.752583 151:0.366707 152:0.750904 153:0.306286 154:0.745609 
0 0 16.29777027391697 83.92908540367843 0 1:0.003201 2:0.371893 4:0.481153 5:0.021804 6:0.590754 7:0.063113 8:0.7177 9:0.173935 10:0.862674 11:0.330766 12:0.974119 13:0.475095 14:1 15:0.630726 16:0.981631 17:0.793859 18:0.87797 19:0.917483 20:0.756692 21:0.971494 22:0.6208 23:1 24:0.501639 25:0.9984 26:0.385482 27:0.778556 28:0.034075 29:0.534407 31:0.283257 32:0.034144 33:0.295959 34:0.283666 35:0.176135 36:0.275198 37:0.074515 38:0.328462 39:0.174635 40:0.326413 41:0.284557 42:0.33133 43:0.39968 44:0.329486 45:0.584817 46:0.328599 47:0.706241 48:0.282436 49:0.831366 50:0.280729 51:0.929686 52:0.340139 53:0.824865 54:0.331876 55:0.709842 56:0.330306 57:0.739648 58:0.337544 59:0.24935 60:0.337681 61:0.337968 62:0.386711 63:0.293659 64:0.362196 65:0.243949 66:0.35127 67:0.19864 68:0.360899 69:0.153031 70:0.38077 71:0.19754 72:0.398457 73:0.242349 74:0.4059 75:0.292459 76:0.403168 77:0.243249 78:0.375171 79:0.743549 80:0.375171 81:0.643129 82:0.387462 83:0.693839 84:0.364245 85:0.739148 86:0.354616 87:0.783857 88:0.365474 89:0.828266 90:0.386575 91:0.782757 92:0.403032 93:0.737548 94:0.409246 95:0.692739 96:0.401803 97:0.554611 98:0.505804 99:0.479596 100:0.50478 101:0.404481 102:0.50717 103:0.391478 104:0.609465 105:0.477196 106:0.586725 107:0.566613 108:0.60844 109:0.632827 110:0.568356 111:0.596419 112:0.615679 113:0.475695 114:0.63794 115:0.356271 116:0.615815 117:0.327766 118:0.56419 119:0.292859 120:0.731084 121:0.363573 122:0.70814 123:0.428886 124:0.698784 125:0.478696 126:0.706296 127:0.523905 128:0.700082 129:0.593719 130:0.707867 131:0.673035 132:0.73286 133:0.568014 134:0.731426 135:0.477796 136:0.737025 137:0.392879 138:0.73245 139:0.387578 140:0.742625 141:0.477396 142:0.750683 143:0.567714 144:0.741669 145:0.617024 146:0.766252 147:0.55141 148:0.785851 149:0.476195 150:0.791655 151:0.40128 152:0.787217 153:0.341868 154:0.765911 
3.272836044294539 0 0 21.21638324494837 0 2:0.380743 3:0.001442 4:0.501869 5:0.032629 6:0.616497 7:0.083213 8:0.741781 9:0.197613 10:0.874891 11:0.342452 12:0.977291 13:0.479731 14:1 15:0.638 16:0.978025 17:0.803581 18:0.873109 19:0.925541 20:0.743353 21:0.968416 22:0.622856 23:0.996419 24:0.505607 25:1 26:0.381092 27:0.724248 28:0.034623 29:0.478936 31:0.236558 32:0.034623 33:0.273912 34:0.277364 35:0.155832 36:0.272229 37:0.060681 38:0.326241 39:0.164188 40:0.32425 41:0.267496 42:0.329176 43:0.38095 44:0.323865 45:0.578015 46:0.323202 47:0.697588 48:0.276456 49:0.825715 50:0.274814 51:0.922507 52:0.33501 53:0.814374 54:0.326556 55:0.701119 56:0.324948 57:0.720418 58:0.339063 59:0.237652 60:0.339133 61:0.329818 62:0.388883 63:0.281273 64:0.363973 65:0.237155 66:0.356427 67:0.192539 68:0.366174 69:0.152549 70:0.386368 71:0.196468 72:0.400831 73:0.235663 74:0.408308 75:0.285103 76:0.402089 77:0.236558 78:0.377179 79:0.724248 80:0.377179 81:0.630291 82:0.389687 83:0.675305 84:0.366104 85:0.724845 86:0.356427 87:0.768963 88:0.363973 89:0.812683 90:0.385354 91:0.767869 92:0.402019 93:0.723352 94:0.408308 95:0.679234 96:0.400762 97:0.548023 98:0.509625 99:0.469236 100:0.508507 101:0.395275 102:0.510918 103:0.382442 104:0.614541 105:0.461925 106:0.591447 107:0.554887 108:0.613528 109:0.625118 110:0.569542 111:0.594181 112:0.617545 113:0.470281 114:0.643468 115:0.347874 116:0.61751 117:0.319721 118:0.568668 119:0.285402 120:0.73427 121:0.355136 122:0.707578 123:0.424372 124:0.69818 125:0.46849 126:0.705726 127:0.513106 128:0.695979 129:0.591594 130:0.707473 131:0.674708 132:0.729413 133:0.561253 134:0.734724 135:0.472519 136:0.736925 137:0.383885 138:0.735667 139:0.383686 140:0.742585 141:0.472121 142:0.75076 143:0.561054 144:0.741641 145:0.619448 146:0.766691 147:0.549913 148:0.786465 149:0.470928 150:0.792265 151:0.397165 152:0.787758 153:0.333648 154:0.769556 
0 0 0 41.23072550105903 0 2:0.379256 3:0.006255 4:0.494348 5:0.026655 6:0.609654 7:0.079484 8:0.746357 9:0.198422 10:0.880572 11:0.351328 12:0.980451 13:0.492302 14:1 15:0.648576 16:0.977963 17:0.811778 18:0.87588 19:0.928503 20:0.748703 21:0.974788 22:0.610009 23:0.996824 24:0.495344 25:1 26:0.380394 27:0.735951 28:0.034904 29:0.501058 31:0.268957 32:0.034833 33:0.29975 34:0.286202 35:0.186682 36:0.281012 37:0.090839 38:0.335324 39:0.19005 40:0.32985 41:0.298403 42:0.334968 43:0.406948 44:0.33312 45:0.590935 46:0.332409 47:0.700828 48:0.281794 49:0.823518 50:0.280159 51:0.916186 52:0.340798 53:0.81736 54:0.332338 55:0.704196 56:0.330632 57:0.727579 58:0.337954 59:0.2653 60:0.337954 61:0.353445 62:0.391555 63:0.306967 64:0.366461 65:0.264819 66:0.355371 67:0.222094 68:0.365181 69:0.17908 70:0.385441 71:0.221035 72:0.403498 73:0.263279 74:0.411104 75:0.310624 76:0.404848 77:0.268861 78:0.379825 79:0.731139 80:0.379825 81:0.641262 82:0.388924 83:0.684373 84:0.365181 85:0.731813 86:0.355442 87:0.774057 88:0.363048 89:0.815916 90:0.384588 91:0.772902 92:0.404848 93:0.730273 94:0.411175 95:0.683314 96:0.403498 97:0.562356 98:0.513187 99:0.486913 100:0.512049 101:0.416089 102:0.514467 103:0.403772 104:0.618824 105:0.484604 106:0.595649 107:0.573614 108:0.6179 109:0.645208 110:0.587616 111:0.606332 112:0.628848 113:0.487779 114:0.651454 115:0.370477 116:0.628777 117:0.333911 118:0.586408 119:0.306005 120:0.742802 121:0.377502 122:0.716002 123:0.443803 124:0.706547 125:0.486143 126:0.71067 127:0.528772 128:0.704343 129:0.599307 130:0.712377 131:0.67398 132:0.741381 133:0.570246 134:0.739817 135:0.485181 136:0.745504 137:0.405119 138:0.740812 139:0.404831 140:0.751262 141:0.484796 142:0.759437 143:0.569958 144:0.750267 145:0.62577 146:0.778986 147:0.563799 148:0.802445 149:0.488164 150:0.808275 151:0.412818 152:0.803654 153:0.352098 154:0.78183 
0 0.1015443855752062 0 0 0 2:0.366375 3:0.003099 4:0.5026 5:0.027948 6:0.628004 7:0.063491 8:0.749988 9:0.160277 10:0.883309 11:0.318245 12:0.97194 13:0.466189 14:1 15:0.617778 16:0.988242 17:0.790327 18:0.9176 19:0.909715 20:0.804047 21:0.963424 22:0.670914 23:0.991676 24:0.532393 25:1 26:0.384785 27:0.762075 28:0.035696 29:0.54736 31:0.321283 32:0.031714 33:0.290905 34:0.250152 35:0.183183 36:0.236286 37:0.085485 38:0.282991 39:0.184701 40:0.276385 41:0.27693 42:0.289408 43:0.389817 44:0.303556 45:0.592685 46:0.29859 47:0.701075 48:0.248466 49:0.810985 50:0.238441 51:0.904733 52:0.291563 53:0.802175 54:0.277978 55:0.702594 56:0.288565 57:0.720335 58:0.321544 59:0.26885 60:0.320982 61:0.35634 62:0.385769 63:0.312413 64:0.355366 65:0.266663 66:0.344873 67:0.224619 68:0.350588 69:0.180752 70:0.376212 71:0.220244 72:0.39837 73:0.26083 74:0.408582 75:0.308038 76:0.403148 77:0.27444 78:0.373308 79:0.715596 80:0.373308 81:0.626344 82:0.384457 83:0.670575 84:0.354851 85:0.718148 86:0.345435 87:0.758369 88:0.359629 89:0.803026 90:0.382068 91:0.759524 92:0.40371 93:0.71748 94:0.409425 95:0.671365 96:0.402914 97:0.554894 98:0.484611 99:0.482229 100:0.484658 101:0.409563 102:0.484705 103:0.40452 104:0.596477 105:0.476396 106:0.548367 107:0.549851 108:0.596384 109:0.634303 110:0.580972 111:0.588979 112:0.622523 113:0.478704 114:0.63653 115:0.370982 116:0.622664 117:0.328513 118:0.576334 119:0.289993 120:0.770319 121:0.365575 122:0.738418 123:0.43417 124:0.726144 125:0.480284 126:0.732656 127:0.522328 128:0.726941 129:0.593535 130:0.742821 131:0.673613 132:0.775191 133:0.559997 134:0.769007 135:0.477004 136:0.768492 137:0.394009 138:0.767977 139:0.39328 140:0.77594 141:0.475545 142:0.784419 143:0.558904 144:0.780953 145:0.618324 146:0.812198 147:0.554165 148:0.832716 149:0.475971 150:0.836464 151:0.398505 152:0.832248 153:0.337991 154:0.812948 
0 1.589814846094655 0 13.54518211316014 5.275473434093558 2:0.361844 3:0.000607 4:0.500208 5:0.023116 6:0.628088 7:0.066254 8:0.757262 9:0.166545 10:0.886066 11:0.32308 12:0.974923 13:0.470938 14:1 15:0.618311 16:0.981573 17:0.782369 18:0.904909 19:0.897828 20:0.797534 21:0.9531 22:0.670577 23:0.989018 24:0.53055 25:1 26:0.381056 27:0.752033 28:0.033529 29:0.532399 31:0.30597 32:0.02928 33:0.31313 34:0.251051 35:0.210836 36:0.236734 37:0.107754 38:0.277698 39:0.206589 40:0.275989 41:0.298568 42:0.28966 43:0.400861 44:0.303976 45:0.608846 46:0.301205 47:0.712777 48:0.25239 49:0.822776 50:0.243477 51:0.910933 52:0.292477 53:0.818954 54:0.278807 55:0.71927 56:0.288366 57:0.725761 58:0.324343 59:0.274542 60:0.319771 61:0.356268 62:0.380224 63:0.312401 64:0.353762 65:0.271994 66:0.343324 67:0.229463 68:0.352515 69:0.185657 70:0.373482 71:0.224791 72:0.395696 73:0.265623 74:0.402208 75:0.312887 76:0.397266 77:0.274178 78:0.371126 79:0.715508 80:0.371126 81:0.636452 82:0.381979 83:0.680682 84:0.357087 85:0.723638 86:0.343971 87:0.764046 88:0.354408 89:0.807912 90:0.380871 91:0.764531 92:0.397913 93:0.722 94:0.407103 95:0.676435 96:0.396342 97:0.563099 98:0.48409 99:0.490475 100:0.48349 101:0.412693 102:0.482566 103:0.405958 104:0.592805 105:0.483255 106:0.550224 107:0.561522 108:0.594652 109:0.641427 110:0.575948 111:0.595074 112:0.620468 113:0.484225 114:0.637233 115:0.372042 116:0.618344 117:0.3303 118:0.572253 119:0.288436 120:0.767238 121:0.364034 122:0.740359 123:0.432775 124:0.72886 125:0.47919 126:0.731769 127:0.526028 128:0.730753 129:0.597379 130:0.74313 131:0.677345 132:0.771856 133:0.563463 134:0.768669 135:0.475367 136:0.767099 137:0.392428 138:0.765852 139:0.391154 140:0.777629 141:0.478401 142:0.78705 143:0.562189 144:0.780446 145:0.621527 146:0.807879 147:0.551511 148:0.831155 149:0.473304 150:0.834157 151:0.395947 152:0.829308 153:0.33576 154:0.809726 
0 3.46839138997297 0 0 0.1957935899453473 2:0.367374 3:0.006929 4:0.5072 5:0.03019 6:0.635657 7:0.079683 8:0.761084 9:0.191537 10:0.888784 11:0.357832 12:0.97859 13:0.507548 14:1 15:0.649592 16:0.977264 17:0.805494 18:0.899204 19:0.916605 20:0.787609 21:0.966345 22:0.657825 23:0.995793 24:0.519325 25:1 26:0.367942 27:0.750062 28:0.03183 29:0.533284 31:0.312546 32:0.03183 33:0.309577 34:0.247063 35:0.206137 36:0.235316 37:0.109874 38:0.275673 39:0.208859 40:0.275294 41:0.301905 42:0.286662 43:0.405345 44:0.298408 45:0.629795 46:0.29064 47:0.731749 48:0.242516 49:0.836674 50:0.23039 51:0.922296 52:0.277378 53:0.829003 54:0.269989 55:0.739916 56:0.278704 57:0.732244 58:0.318302 59:0.284088 60:0.321902 61:0.368968 62:0.380826 63:0.328879 64:0.355438 65:0.282603 66:0.345775 67:0.240534 68:0.352217 69:0.202673 70:0.374763 71:0.243009 72:0.396173 73:0.284088 74:0.405646 75:0.326157 76:0.399204 77:0.286315 78:0.369837 79:0.723831 80:0.369837 81:0.645137 82:0.378931 83:0.688443 84:0.352596 85:0.73076 86:0.342175 87:0.771839 88:0.351648 89:0.812175 90:0.373058 91:0.774561 92:0.391626 93:0.732492 94:0.398067 95:0.691166 96:0.392573 97:0.586489 98:0.484464 99:0.513487 100:0.48579 101:0.435288 102:0.486927 103:0.438753 104:0.598712 105:0.514229 106:0.557598 107:0.589953 108:0.596249 109:0.664439 110:0.57105 111:0.624845 112:0.621448 113:0.514477 114:0.637363 115:0.395694 116:0.621069 117:0.35709 118:0.571808 119:0.31898 120:0.76582 121:0.393467 122:0.740622 123:0.467211 124:0.727359 125:0.513734 126:0.733043 127:0.555803 128:0.726601 129:0.628062 130:0.737211 131:0.704776 132:0.759947 133:0.59515 134:0.763926 135:0.511755 136:0.764873 137:0.428359 138:0.76582 139:0.42242 140:0.777567 141:0.510517 142:0.784767 143:0.594407 144:0.775862 145:0.650086 146:0.801819 147:0.585994 148:0.827397 149:0.512744 150:0.832702 151:0.434793 152:0.82986 153:0.368473 154:0.807503 
0 0 4.386124171549941 66.30094625702991 0 2:0.413976 3:0.01209 4:0.542094 5:0.034283 6:0.651203 7:0.082839 8:0.774094 9:0.207416 10:0.91107 11:0.365687 12:0.982868 13:0.494654 14:1 15:0.643852 16:0.97639 17:0.820075 18:0.89301 19:0.937295 20:0.743886 21:0.978052 22:0.629712 23:0.992251 24:0.523549 25:1 26:0.398277 27:0.69204 28:0.036787 29:0.467237 31:0.245083 32:0.036787 33:0.2892 34:0.284971 35:0.199838 36:0.281702 37:0.123302 38:0.324824 39:0.206116 40:0.319881 41:0.285546 42:0.323089 43:0.378243 44:0.323654 45:0.583501 46:0.324905 47:0.676566 48:0.284607 49:0.772598 50:0.282468 51:0.854946 52:0.329284 53:0.76892 54:0.323311 55:0.679533 56:0.322766 57:0.708936 58:0.366535 59:0.26198 60:0.366535 61:0.344328 62:0.413351 63:0.301486 64:0.391295 65:0.261832 66:0.38288 67:0.225318 68:0.393555 69:0.188729 70:0.412402 71:0.228334 72:0.426265 73:0.264702 74:0.431936 75:0.304478 76:0.426729 77:0.264947 78:0.404694 79:0.711903 80:0.404694 81:0.629065 82:0.412362 83:0.672299 84:0.390831 85:0.7121 86:0.3829 87:0.748443 88:0.391295 89:0.787998 90:0.410606 91:0.748149 92:0.423985 93:0.708348 94:0.431915 95:0.668669 96:0.426225 97:0.548654 98:0.518121 99:0.479131 100:0.517697 101:0.409584 102:0.519998 103:0.405415 104:0.615324 105:0.471921 106:0.583037 107:0.551106 108:0.613488 109:0.624136 110:0.592138 111:0.58073 112:0.632739 113:0.477954 114:0.648458 115:0.378758 116:0.634232 117:0.342709 118:0.593147 119:0.337903 120:0.759303 121:0.387881 122:0.724191 123:0.444284 124:0.710913 125:0.4807 126:0.711135 127:0.517142 128:0.708633 129:0.579921 130:0.722637 131:0.642528 132:0.755711 133:0.553215 134:0.746993 135:0.483717 136:0.743845 137:0.41748 138:0.746166 139:0.41748 140:0.746166 141:0.483619 142:0.754742 143:0.553215 144:0.746993 145:0.595983 146:0.777222 147:0.542915 148:0.787796 149:0.4833 150:0.790157 151:0.427044 152:0.787089 153:0.380745 154:0.781358 
0 1.649772603902372 0 0 5.275473434093558 1:0.003341 2:0.381135 4:0.51272 5:0.019276 6:0.635214 7:0.051553 8:0.758462 9:0.168608 10:0.907438 11:0.357304 12:0.987747 13:0.508667 14:1 15:0.667524 16:0.978009 17:0.859336 18:0.881639 19:0.969529 20:0.725045 21:0.989572 22:0.601365 23:1 24:0.487531 25:0.993409 26:0.369242 27:0.697454 28:0.033022 29:0.486999 31:0.274874 32:0.03277 33:0.307602 34:0.246209 35:0.193978 36:0.250018 37:0.100984 38:0.313978 39:0.198853 40:0.291915 41:0.303494 42:0.291053 43:0.412152 44:0.293891 45:0.590466 46:0.297305 47:0.691179 48:0.244197 49:0.804487 50:0.243838 51:0.899106 52:0.304815 53:0.796361 54:0.28498 55:0.695739 56:0.289544 57:0.715511 58:0.311498 59:0.292615 60:0.314696 61:0.37825 62:0.37862 63:0.333108 64:0.348257 65:0.290403 66:0.338843 67:0.250135 68:0.350377 69:0.204271 70:0.375458 71:0.250361 72:0.395473 73:0.293382 74:0.401437 75:0.333333 76:0.393352 77:0.300876 78:0.367194 79:0.719122 80:0.367194 81:0.630869 82:0.379411 83:0.677049 84:0.35088 85:0.721966 86:0.336148 87:0.760022 88:0.34876 89:0.80548 90:0.375674 91:0.764581 92:0.394107 93:0.720296 94:0.40194 95:0.677275 96:0.395976 97:0.5697 98:0.476428 99:0.500045 100:0.475853 101:0.430074 102:0.478728 103:0.429262 104:0.582716 105:0.498691 106:0.538196 107:0.573222 108:0.580668 109:0.64879 110:0.564247 111:0.610013 112:0.607079 113:0.499774 114:0.621488 115:0.392064 116:0.6083 117:0.352519 118:0.564391 119:0.313787 120:0.749407 121:0.387234 122:0.708588 123:0.458469 124:0.691915 125:0.50149 126:0.69788 127:0.545775 128:0.690047 129:0.618499 130:0.704671 131:0.69303 132:0.747143 133:0.589969 134:0.730758 135:0.502979 136:0.729177 137:0.420007 138:0.731297 139:0.417795 140:0.755444 141:0.504469 142:0.760474 143:0.588073 144:0.751455 145:0.645901 146:0.786022 147:0.579 148:0.802946 149:0.504379 150:0.809019 151:0.426372 152:0.804492 153:0.362631 154:0.786921 
0 0 0 0 5.275473434093558 1:0.014955 2:0.370364 4:0.486723 5:0.007009 6:0.600891 7:0.02174 8:0.725842 9:0.124905 10:0.883428 11:0.316593 12:0.977124 13:0.475559 14:1 15:0.633632 16:0.984902 17:0.836927 18:0.90344 19:0.963885 20:0.752113 21:0.989376 22:0.61567 23:1 24:0.499063 25:0.993616 26:0.378036 27:0.737824 28:0.032458 29:0.531851 31:0.319629 32:0.036135 33:0.317263 34:0.253191 35:0.208384 36:0.253863 37:0.116155 38:0.310646 39:0.213607 40:0.292084 41:0.30887 42:0.297529 43:0.412794 44:0.303469 45:0.591581 46:0.299897 47:0.691844 48:0.250468 49:0.796393 50:0.249549 51:0.886969 52:0.306438 53:0.792643 54:0.290705 55:0.696755 56:0.292119 57:0.7122 58:0.313687 59:0.289675 60:0.317116 61:0.375296 62:0.380617 63:0.330164 64:0.350458 65:0.2878 66:0.337694 67:0.247578 68:0.349185 69:0.205794 70:0.377824 71:0.243516 72:0.39377 73:0.286193 74:0.403104 75:0.330432 76:0.39529 77:0.289317 78:0.368808 79:0.711531 80:0.368808 81:0.628008 82:0.377824 83:0.669792 84:0.349185 85:0.714343 86:0.337941 87:0.756707 88:0.350705 89:0.797821 90:0.377188 91:0.756975 92:0.395538 93:0.713049 94:0.399922 95:0.670059 96:0.394018 97:0.562341 98:0.477495 99:0.497076 100:0.477212 101:0.427481 102:0.476682 103:0.422436 104:0.579818 105:0.491764 106:0.535516 107:0.565957 108:0.581126 109:0.641132 110:0.568186 111:0.602428 112:0.610791 113:0.492612 114:0.621752 115:0.384983 116:0.608705 117:0.349761 118:0.565322 119:0.298246 120:0.748541 121:0.375608 122:0.711593 123:0.446766 124:0.694976 125:0.489755 126:0.70088 127:0.533682 128:0.696496 129:0.606357 130:0.710992 131:0.681175 132:0.749744 133:0.573858 134:0.733267 135:0.486942 136:0.731747 137:0.404044 138:0.733904 139:0.401857 140:0.757911 141:0.48846 142:0.762861 143:0.576001 144:0.757522 145:0.629793 146:0.788177 147:0.562966 148:0.805042 149:0.484398 150:0.807446 151:0.410785 152:0.803239 153:0.347083 154:0.785808 
